<Nnet> 
<LinearTransform> 32 120 
<LearnRateCoef> 1 <ClipGradient> 0  [
  -0.01296006 -0.1688167 -0.2062652 -0.1205134 0.02990935 0.01959472 0.0328863 -0.0721796 -0.01925094 -0.04853573 -0.08889316 -0.05940827 0.01250047 -0.08939806 -0.03089232 0.1632096 0.1484997 0.1632637 0.1321155 0.1219988 0.09757204 0.0691335 0.02772645 0.07415356 -0.05163982 -0.01821273 -0.0705343 -0.009524943 0.1592632 0.06501585 -0.008242859 -0.08718099 -0.07153237 0.04377795 0.09093381 -0.002974018 -0.03900626 -0.1681432 -0.08484881 0.1074856 0.02279913 0.04427603 0.08179294 0.06556038 0.02403414 -0.005039831 -0.01709227 0.02910666 -0.05947052 0.1342359 0.1028177 0.07589706 0.2116987 0.09701499 -0.0006907603 -0.02808281 -0.04694888 0.07898723 0.2553446 0.0923918 -0.06446455 -0.1782564 -0.09308023 0.03349849 -0.1023102 -0.1260833 -0.04261906 -0.0152109 -0.05157236 -0.1206364 -0.05724783 -0.047781 -0.1168034 0.09083907 0.1256261 -0.04538266 0.01650828 0.07843883 0.2048412 0.2253372 0.05223074 -0.08078646 0.06074187 0.0007162496 -0.0707425 -0.09476891 -0.02179114 -0.01361094 -0.08357083 -0.1266475 -0.04059643 -0.03395356 -0.05381894 -0.09960902 -0.002874603 -0.1111732 -0.2007459 -0.1387953 -0.03440244 -0.2268271 -0.1378537 0.1115741 0.4340839 0.4722901 0.1598918 -0.2089827 -0.1854384 -0.07924367 -0.0573502 0.05361073 0.142438 0.01023403 -0.03564203 -0.1140882 -0.06335759 -0.03826432 0.01560145 -0.03962054 0.03653492 -0.1642975 
  0.1690034 0.1992288 0.2468279 0.2468804 0.2985595 0.2688773 0.0655404 -0.02021276 -0.1430389 -0.1234339 -0.1095965 -0.02051169 0.0111643 0.06452065 0.06234012 0.01143394 0.02382475 0.0298223 -0.009576204 0.1077981 0.06833223 0.05026819 -0.006849777 0.04222949 0.1137035 0.04535135 0.04111559 0.06261592 0.13418 0.1744651 0.09608474 -0.08015845 -0.1956296 -0.04374103 0.05533583 0.06703785 0.007071188 0.02612776 -0.005470771 -0.03645287 -0.002311779 0.06321654 0.05646453 0.1053002 0.1157805 0.08928023 0.02979505 -0.01240277 -0.01535975 -0.1211555 0.002747206 -0.02227818 -0.01269698 0.11927 0.1849871 0.02092346 -0.01939867 0.1148957 0.1699797 0.08889733 -0.0009196848 -0.02602161 -0.04708201 -0.03430159 -0.004885582 0.06370684 0.05927607 0.002028617 0.03762997 -0.02030721 -0.04384553 -0.1428931 -0.09516021 -0.1410588 0.09157061 0.0515238 -0.02431763 -0.04313168 0.0421773 0.1388124 0.1323826 0.03717317 -0.0253047 0.03324833 0.06837382 0.02802961 -0.01766435 -0.01443411 0.00934722 0.02006769 -0.003559587 -0.07050651 -0.01579144 -0.07259046 -0.06759392 -0.1605172 -0.05934417 -0.1786994 0.01178463 0.01155953 -0.180969 -0.4768974 -0.4360416 -0.1732823 -0.08595543 -0.3012669 -0.2263935 0.006596954 0.09910079 0.02986164 -0.0750961 -0.03278623 -0.08885989 -0.1349682 -0.09804139 -0.07968618 -0.03501206 -0.0769417 -0.03910843 -0.1469228 
  0.2466453 -0.05280601 -0.07930754 -0.110549 0.04058609 0.02045183 -0.0477173 -0.2746657 -0.1504676 -0.1225709 0.03464376 -0.00759138 -0.05023822 -0.125825 -0.04322552 0.09790377 -0.01581063 -0.04238102 0.0008801577 0.06424122 0.02275498 -0.03038091 -0.1045365 -0.0008731327 0.2623582 0.08918764 0.124309 0.1339334 0.1297991 -0.04329884 -0.1726028 -0.2406687 -0.1868859 -0.2300712 -0.01565546 -0.004628084 -0.03838714 -0.06355454 -0.02625145 0.06031852 0.04541924 0.03883415 0.02380472 0.03620962 -0.002332413 0.004072637 -0.04808654 0.05806793 0.1868506 0.02630315 0.2139059 0.1374478 -0.06019956 -0.207039 -0.1469395 -0.07731631 -0.01632428 -0.1733484 -0.01882767 -0.00791887 0.01581856 0.09267642 0.0421185 0.07363596 0.2533669 0.2631709 0.2181734 0.1555624 0.08967289 0.1567316 0.1352243 0.2113955 -0.07537813 -0.1061901 0.3048951 -0.01583013 -0.2875002 -0.2225448 0.01012335 0.1318236 0.1465231 -0.101881 -0.1395222 -0.1445974 -0.07627377 0.06319927 -0.04656832 -0.05516145 0.1161227 0.06958668 0.03280699 -0.02606644 -0.07115097 -0.02145885 -0.0186744 0.01680875 -0.2607964 0.04479395 0.6103142 0.04712399 -0.1055945 0.04209906 0.1504969 0.2131957 0.1679465 -0.08263316 -0.1195892 -0.09520438 -0.06617091 0.05834958 -0.007378612 -0.1327533 -0.05468942 -0.08310438 -0.1327149 -0.09909644 -0.003781914 0.03940522 0.03906489 0.0274895 
  0.152535 0.1213775 0.05393287 -0.08207352 -0.1304592 0.0471782 0.2686709 0.3632986 0.2364272 0.1802707 0.1919376 0.03757935 -0.02384106 -0.100217 -0.1552286 -0.1311332 0.02116653 -0.04021816 0.05753765 0.08385688 0.03664856 0.03358072 0.09865514 0.06622371 0.2177196 0.1298383 -0.07927513 -0.211729 -0.19785 -0.1175348 0.1705534 0.3939165 0.2875844 0.01017191 0.02106682 -0.01520786 -0.04529841 -0.1840383 -0.2153728 -0.1174879 -0.02782141 -0.01585379 0.08831728 0.05887775 0.04626839 0.09211919 0.1532585 0.1495969 0.1086161 0.01486978 -0.26322 -0.2543518 -0.2119309 -0.2003613 -0.046475 0.1680873 0.1655861 -0.1421191 -0.2165177 -0.1861534 -0.08403755 -0.1074948 -0.04089553 0.02137264 -0.02182247 -0.02001809 -0.03162531 -0.003799796 -0.0005508511 0.0636948 0.05811635 0.03889989 -0.01031827 -0.05836774 -0.2656391 -0.04208665 0.01335183 0.00492785 -0.1805001 -0.1046893 0.04165332 -0.138746 -0.2484172 -0.2829364 -0.03361499 0.1505332 0.2752015 0.2452621 0.01548437 -0.002645751 -0.07956268 -0.06549369 -0.04573262 0.01573082 -0.005397719 -0.005015791 0.0659219 0.02892188 -0.09445706 0.1281545 0.1792042 0.315029 -0.05828568 -0.1377198 0.08055319 -0.05465043 -0.1504394 -0.2575691 -0.009031005 0.1606959 0.3381886 0.2081583 -0.06784737 -0.04437725 -0.1153886 -0.1489173 -0.1650593 -0.1108621 -0.1285106 -0.1511345 
  -0.02791341 -0.05517033 -0.09823135 -0.1987134 -0.1546374 -0.1748273 -0.02075176 0.08985878 0.1473657 0.04867422 -0.06697737 -0.01752049 0.09765382 0.05290442 0.06591463 0.09044514 0.008626633 0.05472776 0.1257987 0.05784566 -0.00959765 -0.007871206 -0.00197072 -0.01528014 0.04114795 0.0461757 -0.007714935 -0.1044009 -0.1339166 -0.2678466 -0.09120896 0.03874302 0.1535227 0.2069509 0.06780285 -0.0520922 -0.06952059 -0.05415942 0.01532038 -0.002926508 -0.04426014 0.03954374 0.08484651 0.01845965 0.03354685 0.05713235 0.08787365 0.06964985 0.03013938 0.08523898 0.1255365 0.02275533 -0.001973054 -0.2079382 -0.1895639 -0.1042976 -0.0126734 0.1467015 0.1040623 -0.09148295 -0.2506637 -0.2003529 0.005428856 -0.05724137 -0.05816721 0.005595136 -0.03096638 -0.05122157 0.01604722 0.01236032 0.02979562 -0.01663183 -0.1011168 0.04043414 0.1757811 0.0662163 0.1345194 0.05076436 -0.05355929 -0.1054363 -0.1260352 0.02648483 0.1387741 0.06348149 -0.08931337 -0.1125012 0.08390106 0.02178823 0.06482508 0.1171175 -0.02046011 -0.05639924 0.008008401 -0.03225079 -0.07267119 -0.1711913 -0.2863714 -0.07367623 0.08971389 -0.03847525 0.1629972 0.22969 0.06777641 -0.098271 -0.2561407 -0.1996089 -0.008411487 0.1570215 0.1307532 0.04340329 0.1536936 0.03957022 0.1184074 0.1180126 -0.06506944 -0.1111161 0.0005920709 -0.05755265 -0.1307916 -0.2289106 
  -0.09286022 -0.09075463 0.1091804 -0.07934121 -0.1871418 -0.1041834 0.007605933 -0.0473362 0.01194585 0.154186 0.1196346 0.03463373 0.1626979 0.01292871 0.001990468 0.1471364 -0.138919 -0.1166253 0.03559911 -0.06511017 -0.06984768 -0.1394699 -0.2229854 -0.2695046 -0.09578805 -0.05345065 0.05538371 -0.144336 -0.1844048 -0.1767117 0.0001190064 0.03811205 0.03867298 -0.04340435 -0.01983618 0.1652787 0.2764668 0.1288134 0.1243721 0.219032 -0.0689928 -0.04445615 0.05321423 -0.02963932 -0.02815149 -0.02198852 -0.1156469 -0.1134059 -0.01172358 0.04398556 0.04535954 -0.06453799 -0.02998191 -0.0965625 0.01809693 0.159175 0.1078291 -0.2103188 -0.1506822 0.1636261 0.2187566 0.06031679 0.1281394 0.2010157 -0.02047303 0.05988093 0.1794304 0.07063042 0.02378774 0.152147 0.1306075 0.1581648 0.001875451 0.06739108 0.04933691 0.02613996 0.08168476 0.05435231 0.09645888 0.1569399 0.0725063 -0.09168308 -0.04549811 -0.03011841 -0.1696047 -0.2046974 -0.01192066 0.05839571 -0.1462811 -0.04597624 0.05693107 -0.02277579 -0.07496429 0.03063957 0.02613052 0.009404148 -0.03601127 0.1056209 0.1591484 0.04090684 0.04808122 0.04153031 0.04775602 0.01909516 -0.09992947 0.007351525 0.09405612 -0.1673931 -0.3662531 -0.2800873 -0.02407152 0.03197986 -0.1222373 0.004597866 0.04990689 0.08338597 0.02702835 0.106899 0.1099178 0.07062936 
  0.1074078 0.1351236 0.1064227 0.1215217 0.03399954 -0.0519353 -0.07754507 -0.07089441 0.0343466 0.02370948 0.03476733 0.104241 0.1183066 0.007095448 -0.1384348 -0.1890001 -0.05799989 -0.02121618 -0.03912981 0.02209271 0.01872413 0.09149129 0.1259468 0.1258239 0.1035329 0.1179512 0.01377491 0.09605571 0.1192873 -0.03788089 -0.1989136 -0.1506317 -0.05749934 -0.04198531 0.04987015 0.1152634 0.1094704 -0.1027686 -0.1968146 -0.1263593 -0.05210155 -0.03298158 0.001545403 0.02522583 0.04203661 0.06947296 0.07900218 0.0290102 0.1531377 0.2786468 0.197518 0.2033459 0.2997797 0.2552663 0.1139417 0.1677572 0.1454245 0.101999 0.09977375 0.1488757 0.1024554 -0.08151822 -0.06811729 0.1101688 0.1050181 0.08671217 0.09820087 -0.006786 -0.04589396 -0.1037958 -0.09865579 -0.1377558 0.09366926 0.2093693 0.05517484 -0.1516296 -0.1080456 0.08259179 0.1979986 0.2647572 0.1695714 0.02532101 -0.1012831 -0.09893978 -0.09622874 -0.06483789 0.03147961 0.1616236 0.1665695 0.1046112 0.1221574 -0.04436266 -0.03374947 -0.05844856 -0.06824524 -0.06201503 0.1118983 0.02666176 -0.2859001 -0.5906181 -0.6273519 -0.3060805 -0.07706087 -0.05233363 0.01926878 -0.05759494 -0.1538023 -0.2010934 -0.1711663 -0.04935868 0.008832911 0.07061565 -0.02743383 -0.1359482 -0.05975341 -0.1178991 -0.01995113 -0.1005123 -0.106214 -0.06075699 
  0.2656051 0.2745999 0.115931 -0.0364442 -0.2130991 -0.1372204 -0.1729814 -0.01326172 0.1256084 0.07523967 0.05437795 -0.02017742 0.03580854 0.07894215 0.05351087 0.04166199 -0.09645674 -0.0580137 -0.004963873 0.1713756 0.007794044 -0.01205359 0.04476897 0.1707161 0.2217526 0.18158 0.006493373 -0.1481155 -0.1068769 0.1467176 0.09014431 -0.04674196 -0.01965767 0.04493318 0.0471175 -0.1200192 -0.1643255 0.02269612 0.1861871 0.137553 -0.05203202 -0.04397168 -0.02413031 0.1445851 0.04445868 0.06792713 0.09255891 0.1117692 0.1222085 0.06962739 -0.0439477 -0.1497062 0.07149112 0.4129212 0.3607989 0.03609123 -0.08340214 0.03730678 0.09941475 -0.08462948 -0.1776568 -0.06576539 0.1697563 0.1114467 -0.0598573 -0.03437003 -0.05965398 0.02444321 -0.07010435 -0.03465192 -0.04456629 -0.1164679 -0.111004 -0.1009 -0.0640446 -0.1296713 -0.03445438 0.1622522 0.2504734 0.07694982 -0.09003955 -0.09914771 0.02499986 0.01773435 -0.05551389 -0.1175372 -0.03528993 -0.07245872 -0.1320951 -0.07033342 -0.09577959 0.01558781 0.007649526 0.07626952 0.07032533 -0.08320639 -0.1310581 -0.2394313 -0.1133698 -0.09638342 -0.3188587 -0.3361539 -0.06014986 0.04872457 -0.02161498 -0.0793929 0.04576719 0.1734779 0.2000181 0.01513361 -0.1517659 -0.1525494 -0.141753 -0.05961094 -0.04650124 0.07414021 0.07297818 0.1704249 0.1934668 -0.04495996 
  0.07497787 0.07976446 0.08909069 0.1051048 0.06121684 -0.07328238 -0.06957494 -0.0791914 -0.1754411 -0.3000367 -0.2589006 -0.04672462 0.06895189 0.02360909 0.01276711 0.01918259 -0.01266866 0.1817628 0.1736978 0.04994415 0.08991738 0.002800488 0.02594491 -0.06175037 0.02463144 0.05585883 0.1656564 0.1911935 0.1505694 -0.001539698 -0.005493325 0.1295469 0.06489871 -0.2289528 -0.2515967 0.07270273 0.2283687 -0.009576092 -0.0472341 0.08948735 0.04635096 0.1906842 0.2332208 0.0221983 0.08358013 0.006886982 -0.02175299 -0.1043026 -0.05627584 0.03837059 0.07206559 0.08758684 0.0233321 -0.1017816 -0.08015252 0.114707 0.06785369 -0.2128209 -0.1008213 0.2326957 0.1659112 -0.1714613 -0.1898797 -0.0216648 -0.104739 -0.06778979 -0.03264602 -0.2633415 -0.1934323 -0.2800392 -0.3688451 -0.3707302 -0.04178006 -0.09617767 -0.2093825 -0.1219417 -0.0418414 -0.005436867 0.002683653 0.01029622 -0.01179456 -0.0500875 0.1629346 0.2008223 -0.08758 -0.2159202 -0.06722078 -0.04498356 -0.03089367 0.03073909 -0.007469562 -0.04963706 0.06808304 0.1257635 0.1232103 0.2076376 0.06176022 -0.1423824 -0.2843878 -0.09146132 0.1561717 0.3508441 0.2266709 0.09958182 0.05677314 0.2691202 0.2341434 -0.1581937 -0.4718835 -0.282814 0.04422255 -0.0282515 0.1064352 0.1598621 -0.03115805 0.02702863 0.1158721 0.1628034 0.2327902 0.3676426 
  -0.0394927 -0.1292392 -0.2069631 -0.1363968 -0.1352128 0.01135297 0.1969354 0.05450251 -0.0110346 0.1328995 0.2017791 0.1390665 -0.05085074 -0.1089037 -0.1745785 -0.2199751 -0.09034619 -0.04487877 -0.08150037 0.05564913 0.034112 0.08762255 0.1449452 0.1739805 -0.01227339 -0.06916533 -0.08507404 -0.1397898 -0.2222084 -0.1730746 -0.04980018 -0.1772868 -0.2531137 -0.0004116666 0.3225513 0.4480167 0.2446316 -0.07622907 -0.196859 -0.1771895 -0.0297693 -0.007031747 -0.03485701 0.1067457 0.08634106 0.1173723 0.1649369 0.1298577 -0.0589624 -0.01081532 0.1070118 -0.05165892 -0.1260217 -0.166384 -0.07147428 -0.05285143 -0.1123861 0.04646144 0.2146143 0.3136778 0.1821458 -0.09160253 -0.1701177 -0.05303346 0.06790669 -0.004017975 -0.07467116 0.01736116 -0.04688561 -0.1173761 -0.1118639 -0.2261495 0.001019835 0.1328288 0.308691 0.02672236 -0.04034938 -0.1046852 0.05896156 0.133862 0.1175443 0.09229473 -0.1289984 -0.1849105 -0.1160365 -0.01913663 0.04883801 0.08467577 0.1197846 0.06255284 0.005602799 0.0437136 -0.01607267 -0.09120221 -0.0648491 -0.1216846 0.117542 0.4188769 0.5605623 0.08114647 0.02117922 -0.03931253 0.1017181 0.09185237 0.1569936 0.1367063 -0.1573263 -0.2802219 -0.1754481 0.06346276 0.2173921 0.1290633 0.1293171 0.1776538 0.135072 0.1094617 0.02663803 0.003545531 0.03370663 0.03338626 
  0.03714287 -0.08566942 0.01224979 -0.02291918 -0.07773996 -0.08734508 -0.03372043 -0.08931523 -0.1831572 -0.1546615 0.1198103 0.1941504 0.1425058 0.089327 -0.01916968 -0.0418594 0.05853796 -0.04137475 0.01846661 -0.02779108 -0.02217572 -0.06857909 -0.1377694 -0.007111227 -0.01319816 -0.1292599 -0.0573114 -0.01809439 0.003460203 -0.03440956 0.1049006 0.05171265 -0.09641942 -0.1111979 0.2043576 0.265217 0.2268851 0.1469778 0.003344942 -0.007195641 0.01361992 -0.06017433 0.0426094 -0.02252314 -0.009221405 -0.01781812 -0.1335157 -0.003610355 -0.01583956 -0.09101677 -0.09359412 0.06869203 0.1898415 0.1136864 0.1709689 0.1805944 0.2298569 0.2325201 0.1123855 -0.01883036 0.1262175 0.1637759 0.01646157 0.07675922 0.06682722 0.009053268 0.1224676 0.03484903 0.05608027 0.03508507 -0.0669724 0.05463372 -0.08250158 -0.08409726 -0.1127423 0.008472815 0.1371474 0.04423107 -0.03304185 0.1331893 0.3807937 0.3208816 -0.304639 -0.5571856 -0.190557 0.01439963 -0.06588305 0.05108275 0.08957522 0.05970624 0.1421232 -0.01323451 0.05996119 0.02968596 -0.0675026 0.06059008 -0.2184729 -0.1139185 -0.02042975 -0.08011813 -0.03713421 -0.1572242 -0.336452 -0.116737 0.0933399 -0.0217245 -0.4208481 -0.4997783 -0.2586925 -0.1659222 -0.2127148 -0.04017019 0.0003715413 -0.02833048 0.08952292 0.03050663 0.02799095 0.04158137 0.02266303 0.1608339 
  -0.09255268 -0.1268586 0.02773912 0.2014766 0.2314253 0.277497 0.2489748 0.04524897 -0.06100482 -0.04440975 0.003417317 0.08744004 0.1196124 0.1259049 0.2294618 0.1567811 0.1003857 0.1264379 0.008270262 0.004531946 -0.03379341 -0.03306708 0.0375234 -0.01947909 -0.0972311 0.01078371 0.01415953 0.2003776 0.07071988 -0.06768898 -0.1268295 -0.1268215 -0.1433626 -0.05574755 0.08311705 0.1363996 0.231305 0.09728184 0.06925586 0.06616788 -0.05428845 -0.01189387 -0.01639763 -0.0360792 -0.0175983 -0.009744856 0.02766004 -0.009283348 -0.002713161 0.2153278 0.02834324 0.09924028 -0.2625952 -0.460726 -0.3669572 -0.1761986 -0.04963823 0.03385304 0.121503 0.09166977 0.1513979 0.01769402 -0.04147265 -0.06601693 -0.1706481 -0.0701355 -0.07808673 -0.0934315 -0.007061873 0.02923628 0.08594957 -0.01294208 0.1631132 0.2885592 -0.07205344 -0.04504754 -0.3340555 -0.3143288 -0.1923618 -0.03200726 0.07983254 0.1844533 0.1395587 -0.02270669 -0.009352978 -0.0196039 0.03021258 -0.1140529 -0.1703825 -0.006155658 -0.1232747 -0.07497641 0.02206439 0.08271619 0.1168075 -0.02147526 0.1193067 0.07530829 -0.3927505 -0.2416908 -0.2486435 0.07278988 0.0804349 0.03852205 0.139997 0.3121299 0.05353324 -0.2637298 -0.3438699 -0.1541289 0.05908107 -0.1041037 -0.07362667 0.0428739 -0.1679434 -0.02412833 0.05300001 0.05288691 0.07213913 -0.1065339 
  0.09017356 0.1233066 0.3251614 0.1259581 -0.05227153 -0.0646605 0.03577084 -0.07437405 0.004758135 0.1649421 0.1506167 0.09458138 0.0004960198 -0.03667626 -0.009173444 -0.0009413124 -0.05722455 -0.05886372 -0.04150323 -0.008386388 0.07305464 0.03502448 -0.005960179 -0.060644 0.06147257 0.0374343 0.1420398 0.1775882 -0.04314882 -0.3170396 -0.272126 -0.1939335 -0.03034275 0.04827105 0.05599513 -0.006506906 -0.08285338 -0.05264331 -0.06697999 0.03118743 0.01617311 0.03381507 0.08737794 0.03380536 0.0457622 0.06586765 0.09883063 0.1366531 0.04121941 -0.09259728 -0.02622402 0.233275 0.06753452 -0.2756668 -0.3940488 -0.259358 -0.1155935 -0.08528425 -0.01065155 -0.08754744 -0.06005065 -0.001267205 0.004125577 0.06586419 0.1073623 0.1554623 0.2080701 0.1278304 0.1011662 0.1229464 0.1739007 0.283417 -0.05627278 -0.1660728 -0.1440489 0.1888832 0.1998738 0.2052665 0.02217516 -0.005170973 -0.03839492 0.03773839 0.1522522 -0.05535469 -0.09830942 -0.1411674 -0.132287 -0.0422971 -0.01801205 0.03486038 0.06316538 -0.004315773 -0.05282117 -0.1006325 -0.05541554 -0.09548826 -0.006849177 -0.2480196 -0.4366162 -0.1082947 0.2403627 0.6645815 0.4248291 0.1855547 0.03502779 0.1744535 0.2218161 -0.07410832 -0.1485829 -0.2441383 -0.1963041 -0.1314816 -0.1098126 -0.0684504 -0.103462 -0.05728162 -0.0124662 -0.137029 -0.0852937 -0.2641551 
  0.04591124 0.1966781 0.1236506 0.08265221 -0.07304344 -0.06203517 -0.0344595 -0.03280172 -0.01557179 -0.01775217 0.08405813 0.1382833 0.08733868 0.187171 0.00528651 -0.1344568 0.0235832 0.009080945 -0.08839141 -0.0619013 -0.05354488 -0.05553849 0.009135374 0.1535786 0.03106138 0.003439454 -0.03153752 0.0339053 -0.1341725 -0.2235712 -0.0675616 -0.05808848 -0.0447676 -0.04882254 0.02015947 0.08060575 0.005438899 0.06243606 -0.02654707 -0.1601626 -0.01865925 0.02017691 -0.01786946 0.01501442 0.02979023 0.02541707 0.0933468 0.1701809 -0.03680437 -0.1327231 -0.01485628 0.1153064 0.05020981 -0.05693755 0.08987291 0.04551363 -0.007034374 0.05287047 0.02362508 -0.05824343 -0.1949356 -0.1174224 -0.01399265 -0.02059814 0.01513906 0.03754431 -0.05498327 0.008773962 -0.0001070942 -0.05217385 -0.02819751 -0.0546806 -0.1053533 -0.1867414 -0.03066854 0.100202 0.1320039 0.00595855 0.03368207 -0.05038603 -0.04518241 0.07841885 -0.02700135 -0.2238009 -0.2795223 -0.1212616 0.09376962 0.1664435 0.08435671 0.1176684 -0.0436034 -0.03163202 -0.0834427 -0.1480016 -0.1781844 -0.237795 -0.139052 -0.1880014 0.02667438 0.07239962 0.09464568 -0.140113 -0.2084227 -0.2513562 -0.1831071 4.791312e-05 -0.001272361 -0.04168422 0.05768651 0.1388753 0.291989 0.3361936 0.2297173 0.2419437 0.09744888 0.1041029 -0.01192635 0.07649826 0.08263287 0.03383109 
  -0.01527877 0.1165562 0.02872439 0.01434443 -0.06707419 -0.1002399 0.002963433 0.05322795 0.1912831 0.3692539 0.2886218 -0.05973464 -0.1589687 -0.1798702 -0.127409 0.04987984 -0.1705545 -0.03489592 0.1059047 0.005688731 0.02011617 -0.07843068 0.02686161 -0.1462822 0.03140193 0.1469013 -0.03171461 -0.01143764 0.004423758 -0.070131 -0.04939654 -0.02213002 0.01561883 0.07581235 0.07405879 -0.08714325 -0.04430304 0.03587905 0.1517522 0.2218863 -0.06395346 -0.01089299 0.09772581 0.02044602 0.04849781 -0.05513928 -0.01409737 -0.1054745 0.09991725 0.1930817 -0.1391386 -0.03461501 0.063549 -0.005701371 -0.1076122 -0.1214709 -0.2501355 -0.3798203 -0.2063761 0.004150257 0.1534267 0.1352817 0.1897216 0.131837 -0.05597321 -0.003043705 0.035173 -0.07570899 -0.07349427 -0.1234112 -0.131328 -0.1430473 0.1696564 0.09366576 -0.3044459 -0.09509729 0.05227659 0.1287469 -0.02421099 -0.1152569 -0.2486963 -0.3748091 -0.1532528 0.1082473 0.1636588 -0.00282742 -0.04392149 -0.1387429 -0.05217082 0.1007246 0.07178742 -0.1057278 -0.1106797 -0.02547756 -0.02664479 -0.0558148 0.1067754 -0.24581 -0.5434165 -0.1973879 -0.06876475 0.1258113 0.1001182 0.0983488 0.08733574 0.07631826 0.08807022 0.0477167 0.04369575 -0.02781027 -0.1567183 -0.162234 0.1057699 0.3348622 0.1782677 0.02928234 0.0620601 0.1816631 0.1961202 0.1080877 
  0.2242669 0.3700286 0.1832722 -0.212441 -0.3790921 -0.215467 -0.0390415 0.01520681 -0.02650634 0.1008754 0.1231842 0.08410283 0.1099546 0.1552534 0.141998 0.09977871 0.04188759 0.004247509 -0.009639323 -0.08810861 -0.0239899 -0.02110576 -0.03393859 -0.1426084 0.1032849 0.2194968 0.03316677 -0.3768639 -0.5072619 -0.292785 0.02150628 0.03196039 -0.05279247 -0.04174778 0.04930179 0.1429268 0.03855107 0.04473947 0.0167091 -0.03776694 -0.01688099 -0.06651449 -0.1188213 -0.1643979 -0.1312364 -0.1189708 -0.1248901 -0.1769634 -0.02514474 0.08739995 0.02900895 -0.1629872 -0.1719173 -0.08076184 0.1037696 0.09446222 0.0445489 -0.05593763 0.02763137 0.1628561 0.01967522 0.005391864 -0.02772531 -0.09268092 0.003124259 0.0003491736 -0.0308719 -0.00949115 0.04266969 0.05457386 0.1025304 0.1375481 -0.1203524 0.007291654 0.07652056 0.2096446 0.2722945 0.1601904 0.09217147 0.09072912 0.1395095 0.1754017 0.2159845 0.1494632 -0.01863884 -0.05956558 -0.04960073 -0.05867233 0.04805258 0.09916366 0.06982574 0.08592556 0.1178947 0.08687124 0.08574972 0.1073135 0.02035171 0.1054426 0.05789278 0.2446838 0.2660484 -0.02271552 -0.20702 -0.1675315 -0.03290369 0.1146148 0.09683184 -0.1384929 -0.2057876 -0.2704253 -0.2830627 -0.1560101 -0.07801733 0.001214023 0.0001946663 -0.02187007 -0.03092095 -0.1606738 -0.2180059 -0.1860643 
  0.07411996 0.204956 0.02530709 0.07345022 0.1286633 -0.03617008 -0.1123236 -0.2287307 -0.2634438 -0.0307456 0.2142577 0.1655546 -0.007054983 -0.07714122 -0.01244238 -0.01723426 -0.01515954 -0.06463786 -0.1570464 0.0004113557 0.06915704 0.1007546 0.05614085 -0.01296147 0.02599089 0.1127774 -0.1150856 -0.07320306 -0.01596233 -0.08604461 -0.06639519 -0.09407267 -0.1905284 -0.183135 -0.08967362 0.01136182 0.02598508 0.007348103 0.0747398 0.1021893 0.1202603 0.1093425 0.01928573 0.1175246 0.08732608 0.08356982 0.02631095 0.006362774 -0.1192345 -0.1848687 -0.244146 -0.2035347 -0.2098346 -0.2221727 -0.02678354 0.08995721 0.0238547 -0.2280692 -0.3906188 -0.2491755 -0.0279514 -0.004826616 -0.02602053 0.04581665 0.08049384 0.03840909 -0.05104363 0.03910246 -0.0152991 -0.04258696 -0.1028854 -0.1241755 -0.138738 -0.197208 -0.05414939 -0.01012307 -0.1030276 -0.2127227 0.04392306 0.2656465 0.2861154 0.04992564 -0.2550965 -0.1783231 0.04966135 0.09001928 0.03497375 0.09987705 0.01166872 -0.04621324 -0.08249357 0.02622478 -0.00269025 -0.01536232 -0.03581374 -0.08311021 0.001178668 0.04768202 0.2780462 0.2395871 0.1360197 -0.05009408 0.07132167 0.3337683 0.437284 0.3266606 0.1429524 0.1731615 0.1801402 0.05758467 0.02536348 0.05956281 -0.07951671 -0.09600832 -0.05931525 -0.02700148 -0.1037271 -0.04544859 -0.05276873 -0.1258093 
  0.247446 0.2414995 0.2338952 0.1040727 0.0963312 0.1179848 -0.01515474 -0.008800288 0.02614651 0.08407997 0.02330126 -0.03478283 0.110298 0.07675642 0.04148315 0.0830403 0.02030342 -0.1000934 -0.05886326 0.007956792 -0.06286662 -0.1090427 -0.151221 -0.1496587 0.1961983 0.08983925 -0.00242028 -0.0372069 -0.01734358 -0.02487297 0.04346579 0.1039216 0.1335837 0.01316054 0.07738695 0.1826569 0.1913943 0.08992706 -0.02437891 -0.07481723 -0.05945627 -0.1508442 -0.1137434 -0.05034024 -0.04257024 -0.03436791 -0.05316203 -0.02939282 0.06297209 -0.09499184 -0.2221847 -0.1077967 -0.02687817 -0.1049107 -0.01610709 0.08785761 0.05932228 -0.2326711 -0.1067584 0.1394141 0.1707769 0.08854587 0.01006936 -0.07674351 0.06647786 0.01825039 0.02729053 0.08614869 0.1127002 0.2113529 0.1765813 0.2379136 -0.1121787 -0.1861379 -0.2494586 0.0200172 0.1454101 0.03198862 -0.03705804 -0.0129142 -0.05816506 -0.3673306 -0.2514164 -0.03304294 0.05253825 -0.03380193 -0.08333506 -0.1127928 0.009951356 -0.05783632 -0.06921549 -0.02614541 -0.03528228 -0.0007523592 -0.002048432 0.04689021 -0.07550634 -0.03495457 -0.08546472 0.115398 0.4077562 0.4902035 0.3210186 0.1374412 -0.07016778 -0.2760799 -0.1401009 0.1029624 0.2132157 0.1523951 0.0711937 0.06199431 0.1666862 0.1415018 0.02310315 -0.04002414 -0.08489077 -0.0672254 -0.07975893 -0.0740368 
  0.3211204 -0.2174091 -0.2775101 -0.1315557 -0.0169215 0.09247739 0.10627 0.06246487 0.1069934 -0.1252438 0.01327296 0.1540729 0.2347656 0.2615337 0.04522269 -0.1100725 0.01376503 -0.1343352 -0.008929881 -0.02030435 0.05414061 0.0155211 0.01398178 0.09849849 0.3471191 -0.1404432 -0.07602739 -0.01556462 -0.008381725 0.03544885 0.102112 0.07467441 0.1313133 -0.05615249 0.04387924 0.05443009 0.08452149 0.1517373 -0.005514897 -0.1083395 0.02387784 -0.08923288 0.03346649 -0.04161632 0.07607215 0.05121336 0.01041955 0.1046775 0.2417929 -0.1639986 0.03912788 -0.01564665 -0.128117 -0.1169041 0.02571301 0.01853447 0.08541841 0.01087825 0.06608097 -0.1204234 -0.165713 -0.08810835 -0.1475148 -0.1344651 -0.0109889 -0.1267646 -0.01674834 -0.1169626 0.00902622 -0.08026205 -0.201335 -0.1279882 0.003386704 -0.263617 0.01225023 -0.1062038 -0.201131 -0.1716939 -0.02122302 0.01917786 0.04837145 0.003954189 -0.03427337 -0.1880458 -0.1888641 -0.1919282 -0.2418295 -0.09431875 0.03874718 -0.04627898 0.05475796 -0.05783394 0.07411103 -0.02923307 -0.1160901 -0.01117647 -0.1082857 -0.1722858 0.1412072 0.01040776 -0.01186241 0.03941016 0.1866707 0.269833 0.2234847 0.1454399 0.07520162 0.1297586 0.09057836 -0.1324044 -0.1886502 0.0192634 0.1596219 0.1043198 0.2043607 0.04443958 0.1202255 0.09202888 0.05554601 0.1816431 
  -0.07498169 -0.1147453 0.1711157 0.1501248 0.2322833 0.2117825 0.2314865 0.1456206 0.002005221 0.01567686 0.03523278 0.009459736 0.08822434 0.1397318 0.1284911 0.09110338 0.07159927 0.01644318 -0.02623688 -0.0181312 -0.04502144 -0.0107562 -0.01289419 -0.001254254 -0.008843564 -0.103671 -0.02191509 -0.1338928 0.01059678 0.04614355 0.1162328 -0.0738184 -0.2149095 -0.2132084 0.002679744 0.1650894 0.1393925 0.1740885 0.1792571 0.1386173 0.1858442 0.09504613 0.09663585 0.1227772 0.1100735 0.1076689 0.06100769 0.0931036 -0.009692895 -0.09668456 -0.1714825 -0.3429457 -0.1676288 -0.00447672 -0.03516998 -0.3409796 -0.405107 -0.3957932 -0.09161504 0.1142035 -0.01922874 -0.03338373 0.003737597 0.01054026 0.07289173 -0.006888262 0.06705081 0.04600807 0.03118657 -0.01861022 -0.07171573 -0.02534112 0.03975299 0.09458963 0.03743323 -0.03177531 0.1512707 0.2453267 0.03103006 -0.2517231 -0.2449803 -0.1327716 0.0951898 0.05000407 -0.1060114 -0.1532918 -0.09304076 -0.01909818 -0.03343004 -0.07869574 0.01548303 0.005264601 -0.04802762 -0.08147743 -0.08286733 -0.0617972 0.1941145 0.2477235 0.1730506 0.1245572 0.1737776 0.1127771 -0.02601643 -0.11174 0.03811122 0.3078145 0.2534659 -0.1313219 -0.1695264 -0.1862216 -0.1617412 -0.0008574997 -0.02749684 -0.05227788 -0.0005483707 -0.04669816 -0.08007126 -0.1200608 -0.08936082 -0.1398865 
  0.1208616 -0.03051257 0.1266138 0.1643629 0.1563202 0.05390165 0.07034927 -0.0236213 -0.06063331 -0.1740751 -0.2019562 -0.05939157 0.02612469 -0.02460494 -0.004672592 -0.04937965 -0.02859693 -0.0693153 -0.06070054 -0.1157966 -0.09454887 -0.07453175 -0.1895462 -0.1948704 0.05499723 -0.1111443 0.0602513 0.04235848 0.05813048 -0.02871596 -0.09745079 -0.03878821 0.1032773 -0.04681314 -0.2363094 -0.1141435 0.01676042 -0.02678706 -0.03564354 -0.03075974 0.03098897 -0.04351014 -0.0304197 -0.05064429 -0.04342303 -0.0122571 -0.09314044 -0.02788193 0.1014398 -0.09385029 0.04785448 -0.01959188 -0.03472214 -0.0919158 -0.05488599 0.05199159 0.120396 -0.04020509 -0.06316421 0.09018352 0.1452594 0.07509939 0.08937961 0.08515031 0.1734186 0.1430946 0.2064483 0.1734782 0.1566952 0.2277804 0.2107257 0.2868044 0.05866291 -0.0863464 -0.04476332 -0.2476902 -0.3040012 -0.1584638 0.1414854 0.1277546 -0.01869143 -0.01223875 0.24184 0.2659638 0.04681902 0.003100488 0.03436825 0.08572943 0.1316862 0.005381027 0.0730683 0.003116041 -0.004123797 -0.01871174 -0.06506627 -0.07069638 -0.1033723 -0.2060064 -0.3773725 -0.5212163 -0.4961472 -0.1429678 0.3678252 0.2058383 0.06310792 0.2775469 0.4138353 0.2119408 -0.04713231 -0.07276987 -0.04139293 -0.0281916 -0.03203605 -0.1623887 -0.1223602 -0.1345844 0.001854068 -0.07358044 -0.1371181 -0.1825537 
  -0.1341215 -0.2016756 -0.1246189 -0.02408681 -0.09136599 -0.1001352 0.1568765 0.3572666 0.2535018 0.2118569 0.07693519 -0.1168582 -0.1479658 -0.1182252 -0.01888828 -0.01680692 -0.03056803 0.08303124 0.1454435 0.05095795 0.01584692 0.02210729 0.02340483 0.05304364 -0.1104649 -0.09671579 -0.08289144 -0.09666716 -0.09945937 -0.005212427 0.1872666 0.257589 0.07256266 -0.09182177 -0.2125794 -0.2068586 -0.1662986 0.0009423952 0.1236749 0.01285614 0.0323793 0.09667169 0.03512562 -0.02440668 0.004891761 -0.02398518 -0.03044936 -0.03333467 -0.07255225 0.03772816 0.08823616 0.01385612 0.04602406 0.2157304 0.2295654 0.2056356 -0.03666839 -0.3004924 -0.3131646 -0.01264364 0.04627534 0.1753103 0.2248595 -0.005585449 0.03325306 0.1350899 0.06533692 -0.06833164 0.01917899 -0.01165443 0.01474605 -0.02151865 -0.01283348 0.125839 0.258742 0.157618 0.06190482 0.09976064 0.08399267 0.07200671 -0.122779 -0.1999825 -0.07336956 0.09570172 -0.0415347 0.1042057 0.1419083 -0.07584261 0.02976611 0.1788597 0.07101208 -0.1810382 -0.006990662 -0.004324657 -0.006326454 -0.07976275 0.004285238 0.1693349 0.2854578 0.175753 -0.1942581 -0.3769058 -0.2879056 -0.1070651 -0.0005164483 0.2507401 0.2519407 0.03371414 -0.223992 -0.05414902 -0.06872148 -0.1818227 -0.06356104 0.09766871 -0.03749532 -0.2619263 0.04902336 -0.02430216 -0.07738516 -0.182539 
  -0.1371072 0.06622753 0.0832967 0.140094 0.2078898 0.1752477 0.1921063 0.270698 0.1947306 0.04932546 -0.131983 -0.07042684 0.03639623 0.05095679 -0.02924149 -0.09409644 -0.04740895 -0.004156847 -0.02872453 -0.03310427 -0.04118995 -0.09954908 -0.1820836 -0.2414688 -0.04809225 0.03255822 0.02010377 -0.02662859 0.03147965 0.02815668 0.06416914 0.1922949 0.2996505 0.202884 -0.1326765 -0.1801094 -0.1119375 -0.04755885 -0.1360615 -0.1030312 0.03704619 0.1379728 0.06232262 0.02639007 0.02441791 0.0294432 -0.01508922 -0.0307433 0.04559343 0.01997225 -0.02421153 -0.1663377 -0.1609416 -0.1467779 -0.0748525 0.009181651 0.1391694 0.160013 -0.04418734 -0.1582683 -0.2226445 -0.150756 -0.1636668 -0.04064788 0.1058591 0.1888864 0.1617906 0.1480067 0.118567 0.1796076 0.1258747 0.1624084 0.08205493 0.01540353 -0.0207353 -0.1212743 -0.1226244 -0.1844686 -0.1322931 -0.1373835 -0.1147979 0.06015594 0.1697639 0.08255567 -0.1284922 -0.1050059 -0.07864089 0.0662587 0.0295934 -0.009295681 0.06072936 0.1398717 0.08605842 0.0808847 0.02963937 0.1059832 0.09605671 0.1175834 0.1434423 0.03253672 0.01093267 -0.1261268 -0.1795381 -0.2618374 -0.308379 -0.07086178 0.1923735 0.1573959 0.01290336 -0.06146046 0.007204611 0.1013313 -0.04753711 -0.125192 0.02028715 0.1300619 0.03410481 0.009793332 -0.0351053 0.07136404 
  0.09553912 -0.03095455 -0.3684274 -0.08650333 -0.108716 -0.3304563 -0.2778789 -0.1400194 -0.1313443 -0.2877143 -0.1963102 -0.1174341 0.07428098 0.04830065 -0.01827357 -0.06612831 -0.1307094 -0.01719081 -0.04606774 0.03505509 -0.05176475 -0.02109982 0.0442462 0.1399543 0.01237839 -0.1368052 -0.424983 -0.1493871 0.00603572 0.09842112 0.1287902 0.06008909 -0.04994157 -0.1747382 -0.09675725 -0.02924023 0.0317677 -0.02376779 0.02633607 0.03056744 0.02386364 0.0971688 -0.03405164 0.05996165 0.00372546 0.02161031 0.1039394 0.1343512 0.002263108 -0.105424 -0.3881101 -0.07241852 0.3194919 0.538829 0.3773797 0.1644078 -0.005509173 -0.008205565 0.1187627 0.1972779 0.1477014 0.0004280017 0.08118646 0.09169529 0.1583923 0.2752848 0.1116837 0.1074668 0.08193864 0.1349304 0.232313 0.1856081 0.07256953 0.0719656 -0.1365335 0.1047235 0.261463 0.331911 0.07775562 -0.01320924 -0.03942126 0.05365653 0.1993219 0.1667406 -0.009240682 -0.1188163 -0.0748844 -0.07321917 0.02870575 0.1114051 -0.06445043 -0.1441101 -0.06282506 -0.01348202 0.02641557 -0.04129193 0.1774229 0.1678409 0.0109652 0.1204996 -0.08285404 -0.1295761 -0.2461213 -0.160932 0.05139928 0.2481729 0.1755417 -0.06557359 -0.1462923 -0.1856996 -0.2152883 -0.2600247 -0.09957674 0.01287074 -0.1083083 -0.1939146 -0.03944185 -0.08880121 -0.05658769 -0.09927326 
  -0.13821 0.1037675 0.01672367 -0.03460394 0.2613676 0.2473497 0.1542294 0.07611571 -0.02025167 0.01613168 -0.02514305 -0.001793423 0.08146507 -0.02509607 0.1202719 0.1728933 0.09071475 0.1498312 0.1806277 0.09942212 -0.009869677 -0.03422184 -0.07709393 -0.01714155 -0.09938809 0.131089 -0.08025581 -0.2335116 -0.03737032 -0.007004702 -0.0684412 -0.0964806 -0.07251979 0.154058 0.1269425 0.02105737 0.03207022 -0.1008575 -0.06680345 -0.02352802 -0.0268171 0.09155211 0.1867984 0.03596006 -0.02942432 -0.03047387 -0.04720138 0.0653809 -0.1399756 -0.02968343 -0.1535973 -0.3490111 -0.378493 -0.3289297 -0.2291136 -0.1854718 -0.04283321 0.1856488 0.0870226 -0.1042818 -0.0882153 -0.1264087 -0.1574028 -0.1352124 -0.02826865 0.06922682 0.1334941 -0.0131144 -0.006993253 -0.006758645 -0.000705523 0.1305724 -0.05836861 -0.01080355 0.08547629 -0.07614036 -0.2651801 -0.2049128 -0.005313042 0.05449906 0.07511548 0.09643302 0.003211532 -0.02421737 0.0670591 0.08134765 -0.003784565 -0.06267716 0.007280691 -0.01717354 0.04412657 -0.06975997 -0.01191117 0.0006050198 0.08197872 0.1673611 -0.0137326 0.01979247 0.1694867 -0.00999425 -0.07495569 0.1663941 0.3375419 0.2362322 0.1226041 -0.01257093 -0.01558603 0.1763139 0.1785964 0.123541 0.06646596 -0.05845515 -0.003252274 -0.07984018 -0.07612357 -0.227524 -0.1293618 -0.1809817 -0.107195 -0.08849515 
  0.1890088 0.1153823 0.04485938 -0.02344816 -0.1731532 -0.0971968 -0.05684678 0.0366888 -0.08337576 -0.1886345 -0.06504147 -0.01387069 0.09544706 0.1416692 0.03871838 -0.032848 -0.0690249 0.05012007 0.2047943 0.1247821 0.08280384 0.06905985 0.05532928 0.1473098 0.1730162 0.05951636 0.07411879 -0.03427183 -0.1241712 -0.01229575 -0.006830331 -0.01240467 -0.04618882 -0.1447688 -0.07944451 -0.01055055 0.05628411 -0.04769795 -0.04150474 -0.0935205 -0.2213705 -0.1472508 0.08951735 0.03125224 0.02189127 0.00368281 -0.009702448 -0.02729297 0.04974651 -0.01732612 -0.002653047 -0.01806338 0.06167667 0.1721219 0.06264515 -0.0458752 0.002462448 0.03180622 0.09635195 0.1073163 0.08044322 -0.06230536 0.1015053 0.07779054 -0.1676915 -0.1362578 0.02246713 -0.03818702 -0.04265425 -0.058145 -0.1083614 -0.1729962 -0.03305088 -0.1256356 -0.1638511 -0.04190311 0.1110576 0.1495887 -0.03695653 -0.2318933 -0.05853966 0.1041828 0.2231135 0.1217803 0.04434426 0.02907257 0.2743791 0.1968349 0.002635419 0.06252918 0.08303372 0.0639096 0.08191431 0.1312641 0.08138017 0.04248879 0.07674712 -0.1216402 -0.2163342 -0.003115976 0.06632978 0.05482269 -0.08059272 -0.2667736 -0.06733871 0.1506121 0.1692641 -0.05919391 -0.05494508 0.04557302 0.2244367 0.09838403 0.001257074 0.04819449 -0.02879597 -0.06317075 -0.07564709 -0.05860295 -0.09322158 -0.07536034 
  0.1226283 -0.008212735 -0.06457823 0.1108778 0.0423244 -0.1065064 -0.1561651 -0.07426932 0.04381042 -0.05719625 -0.03905589 -0.1219798 0.0236031 0.08308163 0.1005172 0.1111811 0.04416697 0.07090682 0.04848274 0.05365988 0.02052953 0.058753 -0.0180472 0.09164278 0.1076497 0.08258036 -0.07234386 0.1935525 0.1252636 -0.07462839 -0.2579523 -0.1629598 0.04222736 0.03090359 -0.1818753 -0.4591969 -0.1371807 0.1777762 0.235305 0.2328927 0.08002438 0.1280551 0.1033185 -0.01358987 -0.04771868 -0.03911788 -0.08100004 0.0001096921 0.08271424 0.1424664 -0.02526132 0.1646415 0.1089941 -0.02260423 -0.1775493 -0.0952386 0.140405 0.2188928 -0.09295674 -0.4493259 -0.1041349 0.1663324 0.1838596 0.1435361 -0.01273464 0.03706883 0.08654299 -0.1517112 -0.2010138 -0.1828128 -0.2091298 -0.1124196 0.0243632 0.1608441 -0.0340214 -0.03110217 -0.04597931 -0.0206565 0.03925631 0.07931615 0.1337241 0.1872799 0.01798857 -0.1404222 0.005807797 0.03083212 -0.01668875 -0.09090938 -0.1487596 -0.04148833 0.0496496 -0.0561068 -0.03056088 0.01690581 0.01975213 0.04878554 0.1582913 0.2630561 0.05881916 -0.04341063 -0.003083644 0.1426714 0.1858442 0.1575804 0.07169957 0.09824781 0.1759852 0.2306057 0.1004379 -0.02291856 -0.1055397 -0.1823773 -0.1442704 -0.0727321 0.04684363 0.014818 0.03450074 0.03848023 0.001446493 -0.03790458 
  -0.1244126 0.1649247 0.3070389 0.03448451 -0.1018326 -0.06975516 -0.1165224 -0.1303449 -0.2282709 -0.1229907 0.05749679 0.1190129 -0.01580617 0.1141878 0.1569559 -0.08296013 0.02421139 -0.0139945 0.005196003 -0.04552289 -0.002460008 -0.02594209 -0.0269344 -0.06839427 -0.1667176 0.05855422 0.1206578 -0.01875445 -0.04536588 0.02649453 -0.004491264 -0.03340656 -0.1920446 -0.1747432 -0.02038376 0.04974211 -0.06189924 0.03324908 0.02485678 -0.1663735 -0.1129498 -0.1612801 -0.05925091 -0.02889454 -0.0199518 -0.02137585 -0.0316177 -0.02276089 -0.075043 0.01960188 -0.04696918 -0.02019879 0.02130185 0.1623449 0.1286826 0.06076537 -0.01518806 -0.0170822 -0.1844222 -0.2302833 -0.1316892 0.05185549 0.02396164 -0.1248093 -0.06610139 -0.1187541 -0.03534356 0.1164863 0.136022 0.1335397 0.1299203 0.1501026 0.03425081 0.02188105 -0.09302098 -0.08356488 -0.07168575 0.195239 0.2119794 0.1775046 0.1725564 0.1402074 -0.3261399 -0.3648325 -0.0982318 0.09356744 0.01222699 -0.01628598 0.08175553 0.04754503 0.05475947 0.08119918 0.05621969 0.0151079 -0.03008445 -0.06888569 0.03123041 -0.04793355 -0.2133509 -0.2229168 -0.1356082 0.2968068 0.3386329 0.3188663 0.2919645 0.1862166 -0.1974959 -0.1126391 0.07370034 0.1295659 0.005005132 0.01495418 0.1050982 0.04264702 0.01601209 -0.003556086 0.005571694 -0.007227594 -0.07996935 -0.1095485 
  0.09239705 -0.01997713 -0.1062915 -0.1205122 0.01327718 -0.04680068 -0.09816357 -0.02033047 0.1022508 -0.03981747 -0.1272964 -0.09880763 0.1506214 0.2090743 -0.005979299 0.1190787 0.1090913 0.0625956 0.1839034 0.1191093 0.0113391 0.002575511 0.02851649 0.1797405 0.01932514 0.01485716 0.05747253 0.04265431 0.05165846 -0.06651887 -0.05029256 0.1540237 0.2262511 -0.1935088 -0.386116 -0.1584945 0.1378403 0.1127784 -0.1734991 -0.08084615 -0.07140288 -0.08729516 0.04346393 0.04776856 -0.01872148 -0.05416628 -0.02613944 0.1472204 -0.03356438 0.06011653 0.1996186 0.1099023 -0.002416228 -0.1226106 -0.04444933 0.204845 0.1260504 -0.4441049 -0.3881857 0.04894822 0.1907195 0.05012777 -0.1906994 -0.1514442 -0.1774258 -0.1740123 -0.01668238 0.08864836 0.1039668 0.02881514 0.08804033 0.176872 -0.1204703 -0.002771465 0.1713913 0.08330906 0.01483704 -0.07305983 -0.03318615 0.01809318 -0.08927032 -0.2843306 0.06682375 0.2474071 0.09291284 -0.01666952 -0.09496471 -0.02196885 -0.1240338 -0.1230591 -0.03045446 0.04946437 0.02318102 -0.1095158 -0.05667951 -0.1041905 -0.2250577 0.007197808 0.1705275 0.08143975 0.08244205 -0.0001132163 0.02978185 -0.053525 -0.02160146 0.2202906 0.3434381 0.02292469 -0.1633297 -0.1201533 -0.01661657 0.1124623 0.007311693 -0.0358512 -0.03545304 0.01133584 0.05035612 -0.1592932 -0.1349443 -0.2386422 
  0.06485894 -0.32956 -0.2469121 -0.1661975 -0.163522 -0.06535362 -0.01914788 -0.08139613 0.1322262 0.2920661 0.08811554 -0.06093273 -0.008426346 -0.09540437 -0.09747586 0.07041088 0.04536216 0.0765495 0.001595916 0.05963442 0.08877535 0.09106366 0.07799382 0.1442906 0.08242959 -0.2747416 -0.2081903 -0.1106543 -0.1241031 -0.1159372 -0.1307529 -0.1554172 -0.08544032 0.03717133 -0.00974376 -0.003072969 0.1263255 0.04102254 -0.02789417 -0.006687508 0.01184957 0.03274045 -0.024838 0.0483918 0.1139191 0.06665683 0.02284881 0.0654956 0.1046236 -0.1281807 -0.03254338 0.06491453 0.04435161 0.02810003 -0.0489119 0.02694335 -0.03783762 -0.1271797 -0.09772962 0.09991232 0.3209366 0.2286422 0.05604282 0.007134377 0.03809977 -0.03184878 -0.07148733 -0.04435207 -0.00754069 -0.1411059 -0.2130814 -0.1948058 0.1469035 0.1267524 0.1085906 0.1214631 0.1344324 0.1761254 0.117324 0.1673717 -0.02139411 -0.2340026 -0.1357443 0.07489169 0.2958595 0.2528457 0.1151008 0.04654886 0.07983375 -0.0005994724 0.0274953 0.04576873 0.09502281 0.04897903 -0.02300448 -0.01341454 0.07502718 0.1145096 -0.07524175 -0.1128312 -0.05360124 0.006546243 0.02639686 -0.03088042 -0.2150799 -0.3492378 -0.1889049 -0.06578358 0.02316861 -0.02535276 -0.1391931 -0.0958804 -0.07613958 -0.150737 -0.05734258 0.01505716 0.07896604 0.05068347 0.02762369 -0.001521319 
  -0.1453836 0.03086352 0.03473642 0.1373373 0.3332086 0.1193528 -0.03627383 0.1132561 0.125208 0.2940827 0.1658179 0.1542642 0.1058172 0.06914596 0.1559387 -0.02917274 0.00177198 0.1142062 -0.1541151 -0.1071124 -0.08366948 0.03946421 0.1577356 0.05215491 -0.004999853 0.2258207 0.0368096 0.06331994 0.2698963 0.1482411 -0.07099289 -0.03350778 -0.09437648 -0.063504 -0.04988228 0.1328172 -0.004815367 -0.002388337 0.06577635 -0.1329863 -0.01998235 0.01850831 -0.2055716 -0.1113667 -0.08203095 -0.03647937 0.007061623 -0.05305301 -0.04300945 0.1551355 -0.07680918 -0.1384418 -0.05232887 0.09873972 0.01103511 -0.09834652 -0.290033 -0.3883871 -0.2590635 0.02132102 -0.1543867 -0.01990492 -0.0009684328 -0.1228943 0.08188225 0.0676409 -0.09661353 -0.01641884 -0.01598861 -0.06994615 -0.09329998 -0.08295001 -0.1484912 -0.03282532 -0.1541038 -0.1578539 -0.1581932 0.1080142 0.2361884 0.04759496 -0.1851636 -0.2373724 -0.1284672 0.02677675 -0.08522766 0.1273616 0.08385791 0.07296137 0.2264689 0.2054504 0.1865608 0.2626205 0.2210984 0.2048689 0.2489103 0.2726949 -0.1510561 -0.1049254 -0.1327551 -0.1228709 -0.2353533 -0.0717799 0.2539737 0.2097111 0.05074891 0.1248057 0.05834589 -0.009953849 -0.1078256 0.005977967 -0.1642389 -0.0796982 -0.07476573 -0.06687608 -0.01649449 -0.009071128 -0.08565145 -0.1041168 -0.05585719 -0.05903783 
  0.03006939 -0.07811156 -0.3295307 -0.103466 0.09756912 0.05532118 -0.08475069 -0.1001335 -0.03486105 -0.08120573 -0.008983322 0.06540602 0.2409161 0.2055885 0.1039484 0.03491247 -0.09336238 -0.01762027 0.02311729 -0.1127533 0.003580195 -0.05250582 -0.07755367 -0.1814528 0.06288274 -0.02939752 -0.3603306 -0.1520167 -0.0281347 0.003935447 -0.03800645 -0.06664883 -0.03120613 -0.01482802 0.1534709 0.07929017 0.009694429 -0.09066936 -0.09155742 -0.1067089 -0.2118211 -0.06664745 -0.02352063 -0.1104318 -0.06741339 -0.09786271 -0.08593873 -0.1808649 0.07605015 -0.01729976 -0.3336439 -0.1767838 -0.05725652 0.04176993 0.0210831 -0.06505181 -0.02903875 0.1109341 0.2499617 -0.02627308 -0.3003594 -0.2872336 -0.1052672 -0.01208062 -0.1078387 0.0648318 0.05367837 0.07720716 0.0866933 0.102414 0.1571347 0.06977993 0.1763207 0.05950717 -0.09134906 0.08471757 0.1212708 0.1777383 0.05599524 -0.001109118 0.04090236 0.0384032 0.07708877 -0.08273668 -0.234189 -0.1437705 0.1026042 0.1901511 0.01525198 0.1207316 0.09695622 0.1146405 0.0370785 0.02341379 0.06471851 -0.01975834 0.3179714 0.2234803 0.3204009 0.3167322 0.199933 0.2190911 0.03317344 0.07491673 -0.05503495 -0.3753756 -0.249175 -0.06282594 -0.02667729 0.03279189 0.2303822 0.1781074 -0.06815422 0.01714298 0.1074888 0.06492592 -0.1099995 -0.05266926 -0.0448483 -0.0585389 ]
<Dfsmn> 32 32 
<LOrder> 32 <ROrder> 0 <LStride> 1 <RStride> 1 <HidSize> 128 <LearnRateCoef> 1 <BiasLearnRateCoef> 1 <MaxNorm> 0 <ClipGradient> 0 <ClipWeight> 1 <Skip> 0  [
  0.00446453 0.01653052 0.3396876 -0.07465754 0.8022803 -0.07737248 0.01365508 0.05977297 0.04395178 -0.09084623 -0.02058325 0.1864851 -0.01302888 0.1147071 -0.08205201 0.1249172 -0.02978766 -0.071544 0.03397514 -0.2526994 -0.01164087 -0.2783846 -0.2000822 0.1795522 0.06432561 -0.1844395 0.06437471 0.01311832 -0.2071677 -0.08154717 -0.03320929 0.03873168 
  -0.008970796 0.005929838 0.128222 -0.05250909 0.5818847 -0.03066834 -0.009932025 0.02557049 0.02723046 -0.05295921 -0.01712322 0.07520613 -0.002351097 0.06294891 -0.04902311 0.07070129 -0.02196244 -0.03876642 0.02619804 -0.14148 -0.009511579 -0.07505444 -0.09951952 0.04965957 0.02078514 -0.07865962 0.006367628 -0.01147451 -0.1020976 -0.03755692 0.003025996 0.02441911 
  -0.01154269 0.001461419 0.08358953 -0.04745256 0.3316355 -0.04292319 -0.006185322 0.03514964 0.02935321 -0.02515115 -0.009485547 0.05528903 -0.006530678 0.04709956 -0.0362368 0.07263207 0.004206826 -0.03944929 0.0181301 -0.1350597 -0.03133504 -0.06973383 -0.09203142 0.04895865 0.0209078 -0.06105303 -0.008014531 -0.0201331 -0.09723078 -0.01943941 -0.0004738531 0.01806641 
  0.0007852887 0.01332832 0.07248845 -0.04050011 0.1666627 -0.04388911 0.01316364 0.03843297 0.02996402 -0.006048054 0.005414968 0.05266443 -0.0004134986 0.04091729 -0.03199346 0.08279718 0.005174243 -0.04132286 0.01866743 -0.1222834 -0.03020566 -0.07747543 -0.08302242 0.05600675 0.02897072 -0.07360347 -0.001783316 -0.008835891 -0.07073119 -0.01560916 -0.006540178 0.02639421 
  -0.01977775 -0.003447489 0.1092576 -0.03311632 0.08413012 -0.03031165 -0.0002701133 0.04972246 0.02340593 -0.01475887 0.0134925 0.06840884 0.001090903 0.04654987 -0.03736579 0.07807369 -0.001669061 -0.04591227 0.01567501 -0.128162 -0.04671939 -0.07807791 -0.07886995 0.05164709 0.02818675 -0.05999988 0.005381465 -0.001311775 -0.08261794 -0.02303931 -0.005784689 0.03868309 
  -0.01276867 0.007604356 0.1334398 -0.02813425 0.05481727 -0.02935295 -0.004366883 0.04337312 0.02655705 -0.03639555 0.002813907 0.1116332 -0.0007649489 0.04416577 -0.05320602 0.09746543 0.005346538 -0.04643325 0.02154672 -0.1320453 -0.03842541 -0.0904827 -0.07680258 0.04791807 0.03433016 -0.07160243 0.01107149 -0.006188795 -0.09424784 -0.004861669 -0.01599311 0.03929048 
  -0.01120187 0.01034273 0.133229 -0.02921082 0.00507602 -0.01178119 -0.02167008 0.04489961 0.02655961 -0.03072448 -0.01055625 0.11217 -0.003761304 0.05097069 -0.03732731 0.08410162 -0.003715609 -0.02920771 0.03882733 -0.1493077 -0.03070232 -0.09326988 -0.08775717 0.04627308 0.04203185 -0.07002613 -0.02494786 -0.004544354 -0.1114183 -0.00658903 -0.003868344 0.05235112 
  -0.007553565 0.003621954 0.115118 -0.02914318 -0.1015111 -0.01028634 -0.03503329 0.03765168 0.04921075 -0.03436783 -0.01177314 0.1108059 -0.002335368 0.06990086 -0.06116707 0.07580094 -0.002883204 -0.02483741 0.03722157 -0.1422388 -0.03748463 -0.07666355 -0.09374335 0.068671 0.04340468 -0.07713519 -0.008812313 0.0121023 -0.09262125 -0.01414355 0.001531117 0.03771576 
  -0.007270924 0.006554739 0.1117597 -0.01629039 -0.2369322 -0.03873888 -0.03799691 0.03303085 0.04482588 -0.0380954 -0.02513554 0.1001686 0.003806853 0.07857431 -0.06981656 0.06702854 0.009034878 -0.01883568 0.04530615 -0.1323252 -0.03298323 -0.1009908 -0.09362243 0.08892023 0.03204679 -0.08512034 0.0312193 0.01719457 -0.09122156 -0.02396779 -0.002244595 0.03734688 
  -0.01625775 -0.006497597 0.1005872 -0.04322226 -0.316837 -0.0560823 -0.02916024 0.03337174 0.06436922 -0.04879291 -0.00787784 0.0916811 0.003016503 0.05882153 -0.07593208 0.07469843 0.002474163 -0.0223526 0.04550678 -0.137709 -0.05162941 -0.108265 -0.1007186 0.07969807 0.03454565 -0.09722363 0.03437291 0.02537436 -0.1055011 -0.0221474 -0.01835381 0.04904334 
  -0.01555489 -0.002119422 0.1030767 -0.02324894 -0.286584 -0.06335589 -0.02996937 0.02621772 0.07929491 -0.052002 -0.02628403 0.1036095 -0.007999334 0.07255419 -0.07363562 0.05860431 -0.03768014 -0.01859969 0.02819056 -0.138184 -0.05164675 -0.1108551 -0.09982596 0.06523323 0.04123576 -0.1102503 0.01647769 0.01440704 -0.106061 -0.02743923 -0.01439045 0.03509493 
  -0.02781564 -0.002852038 0.08809263 -0.01155357 -0.2878884 -0.06157056 -0.04299356 0.02902919 0.09031514 -0.07359906 -0.04227341 0.1390831 -0.02832149 0.06171011 -0.07837678 0.06090614 -0.07121052 -0.0003302529 0.05300049 -0.1276495 -0.04929579 -0.1234318 -0.1127209 0.07700147 0.03403737 -0.1101254 0.004170354 0.001801132 -0.1000751 -0.01919712 -0.01179006 0.06133661 
  -0.04088901 -0.0004899018 0.06541267 -0.02203257 -0.1489059 -0.06183501 -0.04980908 0.01027826 0.09690677 -0.08359259 -0.05040176 0.127715 -0.02794733 0.07687564 -0.07071181 0.05361829 -0.08730257 -0.01719566 0.04656606 -0.1259683 -0.04665395 -0.09789164 -0.1272062 0.05688906 0.02830102 -0.1113101 0.01464576 -0.0185392 -0.1280862 -0.03934952 0.003252706 0.03696554 
  -0.03250608 -0.01646606 0.05249362 -0.01942502 -0.07620752 -0.06717318 -0.0539754 0.01665692 0.1037036 -0.09551775 -0.05420704 0.155815 -0.01678926 0.06580105 -0.1081021 0.04446971 -0.08526158 -0.004710806 0.04445878 -0.1181136 -0.02406109 -0.09387304 -0.1356479 0.05739161 0.07531553 -0.1405766 0.02197924 0.007814445 -0.1470338 -0.03884924 0.002860847 0.04173433 
  -0.03711634 -0.01076575 0.03161982 -0.02128259 -0.0309189 -0.07329578 -0.06123276 -0.01851744 0.08577652 -0.1139897 -0.06298198 0.1513822 -0.006046818 0.04664943 -0.08865101 0.02970962 -0.09997169 0.01788185 0.04436674 -0.104837 -0.007771838 -0.09085537 -0.1583034 0.05697633 0.08185441 -0.123722 -0.02004688 0.002557597 -0.1624496 -0.0449608 0.003204858 0.03935303 
  -0.0460088 -0.001958205 0.01648993 -0.01756706 -0.01583639 -0.07848839 -0.05906718 -0.03339813 0.0942548 -0.1271225 -0.05954567 0.1629538 -0.02753959 0.07318124 -0.09566476 0.03526074 -0.122182 0.02069709 0.02893629 -0.1119801 0.006018838 -0.1018065 -0.1618082 0.05561124 0.1088616 -0.119519 0.0001504952 0.01041615 -0.1508367 -0.0390486 0.009474755 0.03680655 
  -0.05192054 -0.01270974 -0.001385855 -0.01549084 -0.05927556 -0.08701243 -0.06812855 -0.01367977 0.08428125 -0.1444824 -0.07966287 0.1549921 -0.03199796 0.07600634 -0.07205749 0.03325593 -0.1391227 0.03895649 0.006588981 -0.08678103 0.0230797 -0.1025066 -0.1772399 0.06987838 0.1605435 -0.1052367 -0.008093234 -0.01158498 -0.1507064 -0.02602074 0.00589438 0.03771964 
  -0.1016655 -0.04707427 0.0008237298 -0.0159655 -0.08731239 -0.07725187 -0.06984651 -0.05271536 0.09852339 -0.1673273 -0.09440598 0.1684932 -0.03834498 0.07917277 -0.03408348 -0.02494784 -0.155272 0.04161116 0.01288425 -0.03799553 0.04324059 -0.1019004 -0.1888604 0.06136132 0.1528002 -0.1036238 -0.05467566 0.005531542 -0.1400007 -0.02164352 0.003990223 0.02720291 
  -0.07692679 -0.02492388 -0.01118184 -0.01567654 -0.1154924 -0.08191723 -0.0775298 -0.07982654 0.07006057 -0.1565426 -0.1093604 0.1560988 -0.04421618 0.05771887 -0.005698803 -0.04516165 -0.1820031 0.02412491 0.003921719 0.008012836 0.0648371 -0.09345827 -0.1844202 0.06193695 0.1990671 -0.07985359 -0.04981437 -0.00912155 -0.1651112 -0.01020252 0.01497111 0.02588657 
  -0.08375926 -0.04628691 -0.04035437 -0.0001094421 -0.120834 -0.09318904 -0.05635422 -0.09619857 0.0504954 -0.1665763 -0.1238081 0.1196674 -0.04476707 0.02961614 0.01805131 -0.05201629 -0.2059209 0.04336897 -0.01843664 0.05969879 0.09858862 -0.0722983 -0.2066257 0.0605855 0.2236754 -0.07175522 -0.09051107 -0.01388399 -0.1727058 0.0141811 0.01020323 0.004696093 
  -0.1152798 -0.05133497 -0.09834919 0.008920014 -0.1256312 -0.1024399 -0.01676288 -0.1398838 0.02380371 -0.1936497 -0.1523317 0.1353241 -0.05926717 0.02637702 0.04368797 -0.08835211 -0.2378479 0.08465604 -0.05052887 0.08794606 0.1718636 -0.08219984 -0.2190228 0.05200505 0.2441509 -0.05940737 -0.1133486 -0.00942728 -0.1660355 0.01760691 0.01261001 -0.0186582 
  -0.1513112 -0.08838306 -0.1583114 0.007564322 -0.1070974 -0.10281 0.006497397 -0.1776742 -0.01594531 -0.2256956 -0.162637 0.1095924 -0.06927162 0.03348761 0.06315614 -0.1102002 -0.2770171 0.1216175 -0.09209539 0.127016 0.2320658 -0.06602231 -0.2190808 0.06302915 0.2316848 -0.01012196 -0.1331435 -0.007670654 -0.1196302 0.004701729 -0.001494082 -0.01583332 
  -0.1334185 -0.1104148 -0.2168933 0.02373249 -0.08024982 -0.139538 0.007214495 -0.2171214 -0.05487841 -0.2227274 -0.1579067 0.07685561 -0.06328067 0.03340813 0.07058546 -0.1291277 -0.2547827 0.1456383 -0.1775163 0.1727407 0.2998043 -0.0204863 -0.2150914 0.007544058 0.1876715 0.01937497 -0.1589796 -0.007784697 -0.09281905 -0.02017038 -0.014752 -0.04941063 
  -0.1010733 -0.1315691 -0.25556 0.0145504 -0.09387912 -0.1672654 0.02884061 -0.2636038 -0.1013078 -0.2226507 -0.1448563 0.01512048 -0.05672883 0.05122478 0.08482432 -0.127681 -0.1961826 0.1555884 -0.1986209 0.2166381 0.3392768 -0.01283006 -0.2024263 0.002208532 0.1374626 0.04512234 -0.2115581 0.02120497 -0.06062812 -0.0001129398 -0.0665794 -0.1116963 
  -0.08688401 -0.1530942 -0.2963305 0.0356648 -0.09447324 -0.1562055 0.06083258 -0.2875982 -0.167906 -0.2226751 -0.1276115 -0.07626457 -0.0516984 0.07951109 0.1101718 -0.1802501 -0.1269251 0.1708968 -0.2234809 0.288366 0.3082823 -0.005402975 -0.1611135 0.007778483 0.0632998 0.06568453 -0.2523583 -0.00130484 -0.009056999 -0.01567372 -0.1085029 -0.164332 
  -0.04214239 -0.144737 -0.3381403 0.04683566 -0.08066458 -0.09572808 0.1004159 -0.3016921 -0.2635128 -0.187047 -0.10924 -0.1350876 -0.07512762 0.08427835 0.1066718 -0.1599036 -0.03962714 0.1705412 -0.2393268 0.3173637 0.2407612 -0.05246708 -0.0660615 0.02515243 -0.01294232 0.1017618 -0.3199928 -0.03011851 0.01730993 0.007895255 -0.1304114 -0.2436334 
  -0.04715103 -0.1526392 -0.3463822 0.06870608 -0.1131682 -0.05922079 0.1361159 -0.2723841 -0.2893328 -0.09694503 -0.0441558 -0.2294788 -0.05513462 0.103979 0.06823337 -0.1130984 0.01043063 0.1335314 -0.316764 0.3171082 0.1549731 -0.1016962 0.02709838 0.02682831 -0.1212583 0.1399908 -0.339147 -0.0812063 0.0504723 -0.001941151 -0.1359105 -0.3743351 
  0.04496277 -0.2188114 -0.302114 0.1914186 -0.1554072 0.01345479 0.1744244 -0.1940091 -0.2855508 -0.006155392 0.08689957 -0.3286806 0.01000255 0.04415673 -0.08024015 -0.1242794 0.02576555 0.1253237 -0.4703177 0.2443134 -0.0412852 -0.1169005 0.06773084 0.1087167 -0.3263467 0.1504182 -0.3615426 -0.1587098 0.09760128 -0.005641045 -0.2218208 -0.4355075 
  0.2610151 -0.1829911 -0.1722863 0.3303881 -0.1386824 0.06570979 0.2081845 -0.1891783 -0.2788714 0.1506691 0.2429977 -0.3988972 0.07231788 0.05100409 -0.2906447 -0.1220706 0.05504971 0.1570906 -0.5678467 0.1275497 -0.2785868 -0.08975794 0.17491 0.0880492 -0.4059092 0.1030177 -0.3395559 -0.3107573 0.1537794 -0.09220084 -0.3802005 -0.3742962 
  0.516809 -0.01421581 -0.02482446 0.3191203 -0.09613831 0.08983738 0.1510726 -0.2209623 -0.2285544 0.2702703 0.340997 -0.4381233 0.131769 0.08966036 -0.4664202 -0.07296827 0.08453555 0.1232533 -0.4276189 0.05194978 -0.2476211 -0.05977703 0.2874406 0.06983884 -0.356956 0.06717819 -0.187716 -0.4812021 0.2332406 -0.1967348 -0.3935917 -0.1128197 
  0.5138622 0.1425236 0.08509894 0.3721204 -0.05279316 0.2783429 0.1714193 -0.09194823 -0.04088131 0.3338451 0.4075652 -0.3352879 0.2688951 0.2111801 -0.2458608 0.1685262 0.166745 0.2609304 -0.03102046 0.0822185 0.04149957 0.01988258 0.2621953 0.1694476 -0.134128 0.1480798 -0.03954309 -0.4256379 0.3987427 -0.06047082 -0.1543836 0.2254971 
  0.339189 0.1830589 0.07865435 0.3443072 -0.05091998 0.3938604 0.3523828 0.08437392 0.2203579 0.2814186 0.3265806 -0.07874107 0.4487475 0.2569923 0.1165606 0.3678839 0.162782 0.1931415 0.370225 0.01905902 0.09119815 0.1327549 0.2206608 0.2136076 0.08267234 0.1116094 0.1555658 -0.149917 0.2677575 0.1312081 0.225621 0.2940981 
  -0.1991194 0.4582291 -0.08686367 -0.09057311 -0.00766984 0.3478367 0.2452773 0.3311342 0.2950625 0.1504398 0.08537111 -0.05327303 0.366264 -0.06441642 0.3788416 0.3177901 0.2981406 0.06426833 -0.08253834 -0.267168 -0.1312543 0.2392327 0.0342764 -0.04028402 0.07605708 0.2439817 0.3191749 0.5603108 0.05782116 0.6825675 0.5524912 0.2989661 ]
 [
  -0.173338 -0.1626681 0.04183773 -0.03093009 -0.04090765 0.06564073 -0.1240233 -0.2085667 -0.02454362 -0.09684119 -0.0596246 -0.1159028 -0.02951736 -0.01246888 0.008344087 0.2062142 0.03984572 0.05711983 -0.143995 -0.009149597 -0.04998349 -0.05819156 -0.1015166 -0.0706552 -0.1298357 -0.01853641 0.03662165 0.2113349 -0.03442733 -0.1023867 -0.1866139 0.1808464 
  0.01983198 -0.1534766 -0.03808817 -0.05940666 -0.01447985 0.001783837 -0.08315684 -0.139624 -0.1128312 -0.07875378 -0.1240237 0.06324388 0.2281818 -0.1136609 0.0784317 0.06032755 0.04890485 0.1027269 -0.01104131 0.05258388 0.2410029 0.04092428 -0.0474057 -0.1326154 -0.008869966 -0.03477284 0.1284575 0.1258622 -0.04148746 -0.171888 0.1234388 -0.01106346 
  0.06024596 0.02412549 -0.1366919 -0.09143105 0.07899206 -0.04894925 -0.0732877 -0.03164792 0.1729623 0.01440438 -0.09810058 0.04695475 -0.170237 0.1261291 0.01980227 -0.08353863 0.003555014 -0.06134632 0.1300013 0.001596213 -0.1795129 -0.1135124 -0.1033344 -0.2668623 -0.00119869 0.01276557 0.04374478 -0.06772285 -0.003950405 -0.09301841 -0.03241473 0.07939086 
  0.1863862 -0.0601489 -0.04278951 -0.04327545 0.03319833 0.08330609 0.09582087 0.03613453 0.2093415 0.1297941 0.07198706 -0.1839674 0.07653482 0.1152738 0.1619217 -0.09472159 0.03408009 -0.00553427 0.1307626 0.1488295 -0.1653122 0.0004160967 0.025976 0.1019409 -0.1493668 -0.2393165 -0.1662826 0.05309208 -0.01547309 -0.230304 -0.03590834 0.02529327 
  0.03279355 0.07618311 0.0414731 0.1137656 0.008009003 -0.1923185 -0.08877829 -0.1028987 0.1924576 -0.1348992 -0.09511959 0.347036 0.08145478 -0.04926495 0.2311118 -0.2068364 -0.1057361 0.1220592 0.1540922 0.1208972 0.003088996 -0.1976238 0.1046745 -0.3633366 0.1781104 -0.04844038 -0.1345319 -0.02134234 0.1141081 -0.3001122 0.1929047 -0.05619023 
  0.03742041 -0.0187263 0.01006377 -0.2368445 -0.1071529 -0.07226817 0.2069147 0.2054647 0.06368497 -0.001352553 -0.08775572 -0.02159011 -0.08943532 -0.04225921 0.04656545 -0.006470509 0.2234937 -0.1995382 0.0755017 0.001920191 0.2085578 0.1999219 -0.1327776 0.2572567 -0.02164959 -0.04540022 0.12062 0.281195 0.04491387 -0.08914974 0.2193191 -0.0735084 
  0.1741384 0.07453761 0.0439258 0.1171441 0.1394632 -0.04656121 -0.09539415 -0.06460304 -0.06445411 0.005510536 -0.145874 0.08123233 0.1166038 -0.01875742 -0.2088211 -0.08638056 -0.00446711 0.1435633 0.001885169 0.2047203 -0.03320731 9.905505e-05 -0.02123278 -0.02247894 0.3083462 -0.08528145 0.02833627 -0.02797914 0.157625 -0.06844532 -0.190607 -0.04528675 
  -0.1021478 -0.1170155 -0.05234626 -0.0509636 0.01814639 -0.07754737 0.05476028 -0.05986912 -0.09153412 0.2963965 -0.0404978 0.05228089 0.02891817 -0.02741913 -0.1154474 0.2762748 0.1575552 -0.1321858 0.2193245 -0.0182319 0.07253966 -0.2164089 -0.03489724 0.09902496 0.09114122 0.1230596 -0.02182407 -0.01340366 0.1022622 0.05216939 -0.1990073 0.09804935 
  0.06451134 -0.0152799 -0.06324535 -0.04924848 0.02055624 0.00776391 -0.05664587 0.02167009 -0.0400676 0.0580098 -0.06731335 0.03186665 0.1451286 -0.09864791 -0.01431903 0.1348484 -0.03757557 -0.241335 0.01735558 -0.1940389 0.08186224 0.1437633 0.1113355 -0.2063854 0.1706485 -0.03599902 -0.1003541 -0.06818869 -0.06703554 -0.1909085 -0.04044624 -0.1579201 
  0.04574326 -0.1874886 0.1120138 0.0362976 0.05377814 0.05367011 0.0513003 -0.09961899 -0.1616283 0.2019142 -0.04891821 -0.02748556 -0.08224133 -0.1305256 -0.01426182 -0.01320395 0.07707094 -0.04234992 0.09674912 0.1503419 -0.1417399 0.09186113 -0.05773576 0.123231 0.006031375 -0.02536446 0.176967 -0.002764433 0.009270184 0.1505133 0.00905077 0.2571212 
  0.002958022 0.1020751 0.1074215 -0.07750521 0.001910446 0.1626921 0.1236367 -0.04537007 -0.4301004 -0.06432972 0.08866939 -0.02452389 0.2419853 0.03298673 -0.01551958 0.152259 -0.07896661 0.1755506 -0.2151419 -0.07486606 0.3286802 0.07821359 0.0201727 0.2534166 -0.04607583 -0.1628356 -0.1101049 0.09913813 0.0117841 -0.02516897 -0.2534838 0.06740902 
  -0.03510241 0.1313182 -0.06084928 0.1040977 -0.06179874 0.0556745 -0.1196924 0.03309202 -0.1551911 0.05341407 0.04361386 -0.1864398 -0.1642727 0.07437394 -0.1134313 -0.02636597 -0.1340971 0.03403746 -0.06237139 0.312474 -0.2175446 0.2139051 0.02199265 0.06054877 -0.1009595 0.07965924 -0.143942 -0.07217377 -0.01687101 -0.01122769 0.02492103 0.1048809 
  0.05721527 0.1371078 0.1006506 -0.1757581 -0.03697135 0.1721855 -0.1076734 -0.02359714 0.143267 0.1825716 0.1416388 0.04151924 0.006108587 -0.1203773 -0.2493057 0.226594 0.006047827 -0.0104819 0.2867178 0.1798282 0.06631063 0.05252208 -0.07336285 0.1328506 0.0151233 -0.03245953 -0.2972754 -0.07971065 0.06224627 -0.02380479 -0.09662329 0.06097075 
  -0.05157631 0.1354896 -0.1958552 0.07027085 -0.04058851 -0.1410169 0.1516805 0.06284485 -0.09753074 -0.1146857 -0.071206 -0.1371125 -0.2837123 -0.06075457 -0.08115828 -0.1042373 -0.3018508 -0.04144519 -0.04814209 -0.06919961 -0.05156426 0.1196336 0.119932 0.1456878 -0.1641808 0.059988 -0.1611608 -0.2277695 -0.007165719 -0.05836085 0.01906163 -0.01173897 
  -0.001030399 -0.1111888 0.04936789 0.1123989 0.02111767 0.1238117 -0.1562871 -0.143677 -0.316539 -0.06481706 -0.006898293 0.1343574 0.03461255 0.04373317 -0.1275775 -0.1323056 -0.140673 0.2150792 -0.02239542 -0.07117678 0.2020114 0.01095978 0.0715161 0.1163266 -0.08034015 -0.1196715 -0.1819078 0.05367218 0.04226645 -0.2016684 -0.1700497 0.1820478 
  0.0699859 -0.1391955 -0.1224496 -0.1522358 0.1798423 0.04367705 -0.2900077 -0.06565829 -0.0527032 -0.1778558 0.1674024 0.1383711 -0.05052443 0.1278559 0.05222318 -0.03250142 0.0595665 -0.3590374 -0.1675621 -0.1206654 0.07288925 -0.0963045 -0.08054435 0.04999391 0.1046449 -0.1451403 -0.4023363 0.1114954 0.1448512 0.1118066 0.01801564 -0.1453703 
  -0.1529994 -0.03025468 -0.1626304 0.04095038 0.008331826 -0.049974 -0.01265655 0.06514757 -0.01491795 -0.2870948 0.06690978 -0.105367 -0.08407617 0.008611979 -0.1150013 -0.06835949 -0.2036851 -0.176058 0.03883532 -0.1433485 0.2493674 0.01152224 0.3504025 0.04921045 -0.04468551 0.09319129 0.05980722 -0.04198313 -0.008768563 -0.1889328 -0.1301304 -0.09907126 
  -0.1325424 0.03913414 0.2296976 -0.0384147 -0.009031798 -0.0112892 -0.02220751 -0.07874451 0.1293635 -0.2009611 0.07596105 0.142558 -0.1008914 -0.030113 0.03640699 -0.2244715 -0.08209851 -0.02262089 -0.01039552 0.003281362 0.08631937 -0.05216677 0.1591301 -0.05048529 0.0212187 -0.005533961 -0.001253079 -0.1180639 -0.02499172 -0.001762703 0.1789012 -0.0215744 
  0.0395087 0.2033394 0.1046449 -0.145266 -0.2198675 -0.1519718 0.01605457 -0.0001155816 -0.0991499 0.125478 0.01114359 -0.2268842 -0.2064701 -0.09095386 -0.2632938 -0.05556253 0.1875877 0.04727294 0.0113199 -0.00449203 -0.04589444 -0.07317089 -0.04802877 0.03904687 0.03476835 -0.2183901 -0.1880454 0.01289658 -0.00715159 0.005305553 0.07970791 -0.09316537 
  0.1000712 0.2423635 0.07708535 0.06707411 0.08664168 -0.1121299 0.05511054 0.1644086 0.03918964 -0.07892208 0.06265061 -0.00164437 0.2137763 0.1114341 -0.09805359 0.05123145 -0.03769381 0.01789609 0.1642245 0.02005852 -0.07688437 0.003093505 -0.1660595 -0.02623361 -0.08270504 0.1111868 -0.003511085 -0.05968457 0.1221003 -0.1849573 -0.07545255 -0.1438512 
  -0.05757801 -0.09897316 -0.0446022 0.194788 -0.05011477 -0.076691 0.07228827 0.06909531 0.006672523 -0.1640288 0.07049109 0.2135446 -0.04060557 0.02546999 0.2392641 0.03791775 0.1163105 -0.2072101 0.2654818 -0.1376638 0.2908223 -0.1149531 -0.07120106 0.05208595 0.02636605 -0.1160381 -0.1515923 0.1069629 -0.05508656 0.1478811 -0.0276252 0.07771892 
  -0.08689391 0.05256495 0.08428764 0.1900476 -0.02262908 -0.05503572 0.06957626 0.1848982 0.06872252 -0.1811513 0.05422727 -0.01091525 0.02809538 0.04829144 -0.0007147359 0.1960384 0.1087658 0.09405754 0.08323595 -0.07157805 0.1056405 -0.06270263 -0.03071596 -0.07507866 0.02180544 0.1233359 -0.01613272 0.1331474 0.09294705 -0.2020414 0.1092094 -0.128331 
  0.09569887 0.2291594 0.1931484 -0.04338703 0.001530666 0.05234449 0.2342714 0.1034824 -0.160401 -0.1250711 0.09982637 0.2368516 0.08064733 -0.2237427 -0.1458869 0.09165806 -0.1373845 -0.07892046 -0.1642877 0.0526211 0.08270577 0.06780176 0.002615035 0.1407299 0.04825295 0.006703762 0.08595318 -0.08937507 0.1220708 0.07955995 -0.00845811 -0.1025134 
  -0.06817348 -0.3218285 0.04038834 0.1401756 0.2157826 0.1211216 -0.2155573 -0.2334266 0.1524123 0.09996799 -0.0668973 -0.02935397 0.09453186 0.1230916 0.07395498 0.130645 -0.02699115 0.08807543 -0.05466423 -0.01550074 -0.2795131 -0.1088622 -0.15831 -0.06210619 -0.05219145 -5.946923e-05 -0.04193539 0.09531326 0.05128747 0.1516056 -0.1893274 0.1847802 
  -0.05441231 0.08216324 -0.04057372 0.3194188 0.07459527 -0.060294 -0.1017802 0.02257246 -0.07544775 0.06329561 -0.05263366 -0.1011077 -0.1775617 0.1010726 0.04004665 -0.1470704 0.1461761 0.03280987 0.03393805 0.1300338 -0.1947258 -0.0156265 0.02720936 0.02017039 0.1302137 -0.06067271 -0.03492742 -0.11046 -0.1221141 -0.01399869 -0.1589013 0.1453682 
  -0.0132198 -0.2112183 0.009725423 0.09466369 -0.1036745 0.3018185 0.1063945 -0.03820538 -0.05620125 0.1523304 0.2691308 0.107616 0.1483863 0.03924049 0.1809418 0.07863244 0.1678117 -0.0004033723 0.06938156 0.1412169 -0.05604537 0.1177216 -0.2108559 -0.01520023 -0.06846152 -0.1417969 0.04400273 0.2153001 0.09461234 -0.05821366 0.031656 -0.0627533 
  0.06242879 0.02458987 0.02953423 -0.06369514 0.1124341 -0.07289479 0.03073214 -0.01451112 0.05671644 -0.1306895 0.02870461 0.08399039 -0.006262708 0.07010631 0.027007 0.04202764 0.01151095 -0.0624317 0.0211496 -0.008227863 0.1856265 -0.06801949 -0.05948189 0.06947557 0.08783685 0.02475347 0.02696973 -0.1609203 -0.04689804 -0.08018205 -0.009686004 -0.04363934 
  0.004221607 0.06483841 0.04203513 0.1557638 -0.2335778 0.183922 0.09444268 -0.1573137 -0.02302479 0.2576532 0.3057926 -0.06839241 -0.0996936 -0.1109332 0.1462859 -0.00517196 0.02709679 0.2080128 -0.2122953 -0.01356838 -0.09766133 0.1450102 -0.253408 -0.07202581 -0.1138854 0.006085873 -0.2955849 0.06690449 -0.02024776 0.2596641 0.07802153 -0.1578838 
  -0.005784454 0.0924036 0.1984954 0.04358191 -0.02701229 -0.04605621 0.1411688 -0.1239783 -0.08912782 0.1059424 -0.07670233 0.0994186 -0.2084377 0.02308847 -0.008449103 0.02566567 0.05277604 -0.1552491 -0.2019951 0.02828751 -0.1835073 0.07119563 0.07990765 -0.09737416 0.06988046 -0.1092997 0.1593891 -0.09083132 0.07605847 -0.1288283 -0.06912833 0.1577376 
  -0.1739158 0.04855516 -0.06235102 0.1893806 -0.09808417 -0.07847623 -0.1362523 0.05267255 0.09845679 0.0897488 -0.08546957 0.1351622 0.0350333 0.1018163 0.05779324 -0.05102662 0.2934442 0.03105449 0.1284727 0.1287008 -0.1315049 -0.2008028 0.009418283 -0.09412342 0.1207126 -0.001140058 -0.06167444 -0.03312318 -0.04787806 0.06617006 0.005603231 0.002118711 
  -0.0926601 0.09612577 -0.1184711 0.1497176 -0.03562287 0.03192158 0.05246986 -0.06017895 0.08952025 -0.1425448 0.04866995 0.08476675 0.1035814 0.05098565 0.0289766 0.04040929 -0.01882393 0.09884174 -0.06197808 0.1670773 0.01777865 -0.05091502 0.08405213 -0.1880748 0.05557195 -0.007670687 -0.0832326 -0.01304363 -0.170101 -0.07301029 0.2029816 0.04327072 
  -0.06788917 -0.008949989 -0.06831527 0.1372228 0.01845223 0.09852887 0.0212522 -0.1552681 0.1577242 0.03248278 0.1228283 0.1493167 -0.0878263 0.04981876 -0.1727982 0.04809527 -0.1271702 0.03782575 0.04837491 0.01252964 0.04664574 -0.04144334 0.03831227 -0.1865868 -0.02720896 0.06656466 -0.09917065 -0.01531847 0.1932257 0.00877184 -0.1833845 -0.2095177 
  0.0533189 -0.1254116 0.02523964 0.09437203 0.08537658 -0.1165209 -0.3356164 -0.133954 0.06011147 0.1787972 -0.3360041 0.1824979 0.1859198 -0.1294949 0.1166267 -0.08984652 0.1864573 0.08332929 0.1954076 0.2934003 -0.1657106 -0.04596803 0.01228788 -0.2207134 0.3124999 -0.1943852 0.08745132 0.08063951 0.1202199 0.01073955 0.01116872 0.07888652 
  -0.05722445 -0.06866991 -0.1216636 0.1771684 0.0397208 0.06586109 -0.01160137 -0.09424071 -0.1685791 0.2023041 -0.06029477 0.07199075 -0.002993218 -0.09438051 0.02914255 0.03910088 -0.1875976 -0.04460284 -0.06709296 0.07037639 -0.102438 0.1460242 0.1373783 -0.1800898 0.01358272 -0.08887938 -0.07677963 -0.1400365 -0.119654 0.08787264 -0.06088606 -0.07563094 
  0.2928071 0.03974118 -0.05681145 -0.2909712 0.1704804 -0.08353639 0.03985367 0.1371238 -0.1804778 -0.06884801 -0.2647991 -0.05233677 0.04955043 -0.08014061 0.08133171 -0.1304215 -0.2917084 -0.004073531 -0.03868014 0.004923569 0.05143633 -0.1627261 0.02378206 0.01361055 0.153217 -0.1224429 0.09395507 -0.1768412 -0.2211435 0.06967381 0.0494423 0.2638234 
  -0.0756931 0.1005878 0.1724874 0.02997948 0.01694296 -0.00352389 0.05739631 0.08538449 -0.0363753 -0.01571595 0.02634734 0.1426056 0.1273015 0.07038958 0.06891156 -0.1792842 0.07582305 -0.05729361 0.187128 0.1210209 0.08275058 0.003423915 0.1261758 0.01467814 -0.04750172 -0.07079351 -0.07865661 0.009369122 0.06012841 -0.03211252 0.07426623 0.01742589 
  -0.1272132 0.04851833 0.1592213 -0.006998386 0.03134667 0.03664581 0.02769054 -0.07433439 -0.1545611 0.1780393 0.009448232 -0.04407473 -0.2009717 0.1682246 0.02696894 -0.1023242 -0.07642554 0.03637857 -0.03711062 -0.1660077 -0.05917034 -0.01236582 -0.04389821 -0.1978608 -0.05609753 -0.05728095 -0.2375336 -0.09955124 -0.07751699 0.1133521 0.04597341 0.00334781 
  -0.02558857 -0.1382367 -0.07420263 0.05005312 0.06819881 -0.008431729 -0.08205663 0.05458274 -0.04710085 -0.1529724 0.06939218 0.09416076 -0.04177671 0.03190295 0.2409763 0.02621621 0.07838572 -0.3117456 0.1802209 -0.145605 0.1457088 -0.0859663 -0.1379445 0.1710792 -0.0277307 -0.061604 -0.2718414 -0.02632695 0.1254091 0.186117 -0.07313841 0.04854214 
  0.01327135 0.2734351 0.01757518 0.08279192 0.06485708 -0.03030911 0.2352415 -0.06836505 -0.1995222 -0.1275133 0.0960272 0.184753 0.06773023 -0.005619335 -0.0270194 0.1416876 0.007252054 -0.05064213 -0.04266045 0.04082538 -0.021291 0.03382254 0.00989758 -0.1614903 -0.00655059 -0.1472866 -0.1673869 0.06307819 0.1776722 0.09291553 0.05715678 0.06290979 
  0.07811727 -0.05568578 0.04428136 -0.1808017 -0.1633267 0.07616067 0.02263903 0.2093066 0.1341522 -0.09019689 0.155197 0.2099685 -0.09065698 -0.1355062 0.09539104 0.05046392 -0.1289098 -0.1505362 0.05246392 -0.07220218 -0.1183947 -0.2090327 -0.0945314 0.01654607 -0.1619583 -0.1478382 -0.02159436 -0.05144194 -0.09934375 0.1207077 -0.01810755 -0.07700911 
  -0.001934898 0.01232056 -0.08394156 0.1037452 0.00229797 -0.02112922 0.08828223 0.0149663 -0.02272257 -0.1773703 -0.004631097 -0.09946154 0.1461807 -0.1309067 0.001544921 0.162661 -0.008717611 -0.007224877 -0.05170222 -0.03124059 0.05540599 -0.01368236 0.02674239 0.04836542 -0.1163446 -0.01331454 0.004452792 0.1143984 0.07271294 0.04590329 -0.04304505 0.02752021 
  -0.01096857 -0.01633534 -0.002336385 0.003895439 -0.03791363 -0.07032744 -0.03582113 -0.1477118 -0.1224317 -0.08133933 -0.04605115 0.1327514 -0.1979085 -0.04128073 0.03401652 -0.2698351 -0.008360187 -0.343583 0.03261188 0.036879 0.08791732 0.08805457 -0.03566965 0.02592798 0.05671924 -0.07760642 -0.1690404 0.006233702 -0.01807689 0.1477528 -0.03428806 0.1365805 
  -0.2482633 0.009605239 -0.09296633 0.02091877 0.002833759 -0.1175848 -0.2340422 -0.1043862 -0.1327109 -0.008642497 -0.1024863 -0.0624629 -0.0842918 0.05975952 0.008026632 0.1364405 -0.1202312 0.1736843 -0.0970067 -0.02089925 -0.1741549 -0.02195578 0.1228174 0.005325607 -0.00809506 0.03306423 -0.1040345 -0.1654287 -0.01888971 0.04005675 -0.06891693 0.1214309 
  -0.150193 -0.1292253 0.04802371 0.1929551 -0.1066445 -0.04095455 0.1101597 0.153652 -0.01996389 -0.004989363 -0.1904563 0.2787222 -0.008998342 -0.08029471 0.1072856 0.1405054 -0.09540463 -0.103967 -0.186115 -0.08265137 -0.09421586 -0.1061721 0.04798877 0.04072401 -0.09792768 -0.01100149 -0.1105938 0.08850279 -0.05013208 -0.02642372 0.1010499 0.02692344 
  -0.02573905 -0.1264216 -0.05553757 -0.07648335 -0.1039005 0.1407532 -0.02292676 0.005415212 0.1673634 -0.09123971 -0.1037399 0.06345832 0.03086814 -0.2474987 0.2615469 -0.06325226 -0.09497879 -0.1416502 -0.1908684 0.05229349 0.103942 0.1808608 -0.05539148 0.1754904 -0.09988761 0.04156528 0.06091948 -0.1629572 0.09671565 0.01797518 -0.1153896 -0.3006774 
  0.2202507 -0.02445444 0.09972353 0.1076757 0.104547 -0.02954137 0.1370399 -0.1082364 0.06032359 0.1077144 0.0158772 -0.06222481 0.04524291 0.1798188 0.04172875 -0.145492 -0.08605114 0.136723 -0.0311137 0.06497728 0.002582119 -0.1370108 -0.124328 -0.2673785 0.03970757 0.08576832 -0.2442952 0.1699624 0.07150708 0.04879923 0.1377323 0.08302313 
  -0.01135769 0.04306532 0.04748603 -0.1064323 -0.1186003 0.01950466 0.03378369 -0.1303312 0.09308576 0.0753043 0.1784684 0.1578381 0.05497757 0.02141191 -0.07391518 0.07548672 0.02492103 -0.0356214 -0.1166212 0.1160827 -0.1844888 -0.1726019 -0.2429549 -0.01484757 -0.07779817 0.02527158 0.0737309 0.1566247 -0.006380987 -0.004542356 -0.08601868 0.03880678 
  0.1177131 -0.0941368 -0.03320341 0.01595547 -0.04129317 -0.04720004 -0.1910296 0.005328048 0.1356238 -0.1407067 -0.0687566 0.1497858 -0.02453327 -0.1474614 0.04969063 -0.2444895 -0.1729495 0.01813608 0.0941266 0.07018149 -0.04203619 0.04278193 0.01986208 -0.170133 -0.01121481 -0.057253 -0.002478501 -0.01403691 0.03280634 -0.1437587 0.1108111 -0.222097 
  0.02504764 0.1068908 0.07450364 -0.005219703 0.04444287 0.04865417 0.2835093 0.268006 -0.1317895 -0.04954383 0.2046187 0.1201984 -0.00166981 0.02160506 0.1068603 -0.04760629 -0.2482072 -0.08256363 0.07340604 -0.1592342 0.06592742 0.01753232 -0.06736119 0.018227 -0.1887334 -0.09513724 -0.06376649 -0.1554282 -0.09259526 0.2090333 -0.03706254 -0.2594042 
  -0.2312631 -0.07829133 -0.008768185 -0.1720096 -0.1708564 -0.003020151 -0.00426418 0.08700708 -0.01300737 0.07962049 -0.1254337 0.08016994 -0.1222795 -0.07770932 0.1989684 -0.07815665 -0.05873296 -0.06438776 0.04570253 -0.05532637 0.07444751 -0.1485288 0.1814602 -0.02185217 -0.05237328 -0.06846372 -0.02916101 -0.03447342 -0.09943431 0.05935968 0.023258 -0.02026831 
  0.1721704 -0.1604668 -0.01316932 -0.09525045 0.05659821 -0.2690705 0.1540508 0.1049093 -0.04048518 0.143368 -0.1181963 -0.04527824 0.0557905 0.05632614 0.02563009 -0.04042353 -0.1428 -0.2416184 0.02374108 -0.1426149 -0.1008578 0.07856239 -0.3202679 0.137871 -0.1252393 0.08975368 0.006490681 0.04058426 0.1074463 0.2338272 0.3003105 -0.07603385 
  0.08802111 0.03122846 0.1463687 0.1579843 0.1945369 -0.08121022 0.1663342 -0.06720803 0.08482032 0.1443181 -0.09285831 -0.1566671 0.1418359 0.06832344 -0.08502473 -0.07266542 0.1599567 -0.2035126 -0.2094145 0.08628474 -0.02400273 0.08173237 0.02212582 0.2216868 -0.09552479 -0.0148916 0.02808448 -0.1932009 -0.01099051 0.1114613 -0.1306676 -0.0564647 
  0.003476805 0.001477818 -0.08467174 -0.04511604 0.1415009 -0.008596602 -0.07012209 0.04854105 0.03894654 0.03712865 -0.2662896 -0.07457274 0.04706527 0.05396457 0.2734632 -0.01079873 -0.005968966 0.1303186 -0.09694943 0.07498392 0.06016883 -0.1060544 -0.01866739 -0.04421239 0.08568691 0.2034787 -0.05702768 -0.1600474 -0.08451924 0.1077527 -0.0008550435 0.1564191 
  0.1971353 -0.168037 0.09849522 0.1834215 0.212655 -0.05713508 0.003827444 -0.04359389 -0.09348726 0.1044654 -0.1020211 -0.2495191 0.205767 0.09319761 0.09757386 -0.0705776 0.06859034 0.09300239 -0.05109955 -0.01432227 0.02440119 -0.03134078 -0.06708802 0.04970799 0.1074208 0.04988068 -0.05056059 0.1712254 0.1937606 0.07731967 -0.01330524 0.05612889 
  0.07052439 -0.03310249 -0.1080956 0.005003576 0.02273907 0.01573313 -0.0876692 -0.04206557 -0.1648051 -0.01486617 0.09459209 -0.008851981 -0.09157068 0.03137642 -0.01540351 -0.1541086 0.08811701 -0.1314091 -0.01203408 0.001828374 0.06901711 0.08781716 -0.01422074 0.1233291 0.05370326 -0.07172374 -0.1421677 0.05390714 -0.04022218 0.05006448 0.004269755 0.04320525 
  0.1312914 0.0887147 0.03710255 -0.04113019 0.006205671 -0.1519548 0.02868836 0.09564402 -0.1914514 0.1131069 0.3836831 0.1287034 0.05041427 -0.06580484 -0.03974675 0.01018216 -0.05286222 -0.1354499 -0.01795992 -0.02415114 -0.1980529 -0.2834886 -0.1990218 0.07441989 0.1743265 0.08483364 0.007007449 0.2052268 -0.5312846 -0.1457526 -0.09664008 0.1240494 
  -0.08330037 -0.1634438 -0.2465399 -0.09652343 -0.05058035 -0.04494403 0.05933287 0.01463736 0.1066234 -0.2218322 -0.01074739 0.1712761 0.1455148 0.05875102 -0.001534233 -0.13524 -0.08677575 -0.1479269 0.03637261 -0.03335267 0.08188175 -0.07352726 0.1146695 -0.005114316 -0.1767752 -0.01331343 0.2955733 0.05720834 -0.07397547 -0.1376342 0.005930033 -0.05973046 
  0.001442774 -0.2217182 -0.09853163 0.1766364 0.09226784 -0.002984073 -0.2916116 -0.05342551 -0.07189817 -0.02861294 -0.1571687 -0.01904709 0.1604335 -0.06315634 -0.008525289 0.001594556 0.1524072 0.1365368 0.03658303 0.1255686 -0.04029421 -0.09897716 0.1273109 -0.004085257 0.1343203 -0.1281571 -0.07490586 0.08804351 0.1063915 -0.1301017 0.09170291 0.09916951 
  -0.01756189 0.0532057 -0.0978861 0.1381735 0.04900714 -0.091487 0.04400153 -0.04245324 -0.2101523 -0.2946776 0.06959365 0.148195 0.06157226 0.1382278 0.2724451 0.04142592 0.02937627 -0.3347132 0.06781363 -0.04266398 0.2247144 -0.04475543 -0.1071765 0.06682462 0.01734382 -0.1100474 -0.3526155 0.007469835 0.04752949 0.1651063 -0.1497745 0.1206642 
  0.04452088 -0.1356051 0.04289129 -0.03795679 0.08021866 0.03979314 -0.1454149 0.02018824 -0.005561159 -0.2088868 -0.1164829 -0.008826897 0.2891577 -0.1658741 0.1056796 0.08913347 0.1282626 0.08651879 0.1475558 0.0993674 0.1590081 -0.1751224 0.09645418 0.01053955 0.07356322 -0.1522813 0.1123987 0.004005646 0.1443979 0.03649118 -0.02075528 0.02386322 
  0.02679867 -0.002986663 -0.2485728 0.151759 0.07159653 0.05050974 0.08947774 0.1121177 -0.2094958 0.125156 -0.06245922 0.07447837 -0.1025194 -0.1892455 0.03440919 0.1179744 -0.2903082 0.02928186 0.04243378 -0.04268824 0.02425813 0.1419155 0.1457299 -0.06959543 0.1211437 -0.1085122 -0.05040943 -0.2110451 -0.1619871 0.007393859 -0.05783915 -0.1416191 
  -0.05442645 -0.02145368 0.181966 -0.05392313 0.004178649 0.07669714 -0.189178 0.1260509 -0.01340968 -0.02960252 0.06715155 -0.02573511 0.04819693 0.2083888 -0.05610096 -0.1916089 0.02112994 -0.05322899 -0.1523376 0.1511258 -0.1001633 -0.06722372 0.04931858 -0.1126446 -0.09078687 0.1161809 -0.0005677449 0.07290153 -0.0912576 -0.002807433 0.0315771 -0.03789447 
  -0.1011713 0.00687374 0.1947684 0.1428637 0.06370017 -0.1656248 -0.006909873 -0.02205847 -0.1055719 -0.2066017 -0.1238039 -0.01181255 0.04161711 0.1331083 0.08505904 0.01451071 0.2010065 -0.1318746 -0.1078894 -0.06445228 0.173424 -0.09355658 -0.05475652 0.08724629 0.002729745 0.08765133 -0.1379973 0.1057688 0.2206899 -0.002139457 -0.1009343 0.01857963 
  0.1024932 0.07921038 0.1120039 -0.2822396 0.0988177 0.1462119 0.09555926 0.1470238 -0.0120338 0.007025287 -0.1563543 -0.01990764 -0.07104242 -0.06319971 -0.01716153 0.2137472 -0.002502167 -0.03039124 -0.03107206 -0.02220161 -0.02699956 0.06072673 -0.1168519 -0.1044342 0.009656244 -0.005473745 0.01071659 0.07857179 0.1713004 -0.1598682 -0.008255973 0.03011985 
  -0.03621868 0.000346822 0.02091387 -0.001137544 0.02079027 -0.03739591 0.05424784 -0.03461818 -0.09100918 -0.07907767 0.002144563 0.1406645 -0.0137216 0.01490607 0.07669129 0.04274155 -0.03816015 -0.2682927 -0.06703104 -0.05563987 -0.003849545 -0.07121176 -0.05471459 -0.01201223 -0.05639864 -0.08644623 -0.2105745 0.0582986 0.06813985 0.07914882 -0.004377326 0.1200599 
  -0.03249516 -0.2241994 0.06149231 -0.07014004 0.05453507 -0.02491728 -0.04096913 0.008278709 0.0769791 0.06797224 -0.1263926 -0.2559927 -0.01746824 0.1398994 0.151498 -0.136491 0.03608134 0.09151276 0.08941323 -0.1253526 0.01320405 -0.1466283 -0.04408181 -0.09296577 -0.03176499 0.0774232 -0.04623061 0.1358618 -0.107067 -0.1859547 -0.08045366 -0.02368231 
  0.01312195 -0.0699617 0.01288195 0.1141046 -0.02635433 -0.04044386 -0.0448205 -0.1539957 -0.002357588 -0.1648934 0.02476488 -0.1498752 -0.04739527 0.05636638 -0.1402369 0.02912571 0.04955726 -0.01179277 0.08722018 -0.1475275 0.1984232 0.0008628007 0.1459164 0.02857748 0.01117846 -0.05914794 -0.0712029 0.1993365 0.1016952 -0.2144414 -0.08334232 0.2316164 
  -0.1320471 0.3645058 -0.1768337 0.1201508 -0.1127633 -0.02835694 0.2872417 0.2476769 0.1166991 -0.4132512 0.1817551 0.2326367 0.09090015 0.2073426 0.3277801 -0.00563518 -0.06412041 -0.01007805 -0.03896956 -0.06454124 0.179065 -0.2103327 0.149412 -0.2357798 0.02050866 0.001111637 -0.248616 0.03385578 -0.1189728 -0.2387691 0.08068192 -0.2448071 
  0.1067398 0.1010042 -0.2619215 0.03948062 0.01243963 -0.02497188 0.2164863 0.1171571 0.0356315 0.07696875 0.2864 -0.09493468 -0.2744614 -0.00448738 -0.11501 0.0625774 -0.1706697 -0.1087792 -0.05012476 -0.02736098 -0.159401 -0.005370792 -0.03734446 0.2209529 0.03081551 0.1058427 -0.1268643 0.08625342 -0.04481787 0.01976791 -0.1647715 0.02666755 
  0.06551751 -0.3375461 0.2409651 -0.2211197 -0.02234854 -0.01714651 -0.1930898 -0.08758992 -0.05008268 0.1816366 -0.07506657 -0.1929826 -0.1635267 -0.1848888 -0.1086306 0.01077771 0.1703355 -0.1845038 0.04639189 -0.232305 -0.009709843 -0.0401424 -0.09306075 0.2655363 -0.007308383 0.0372456 0.05631439 0.06962045 0.07163878 0.06823763 -0.1578937 0.1854574 
  -0.09114083 0.005850195 0.061952 0.004771379 0.1519824 0.03045669 -0.07006873 -0.08255786 -0.04465395 -0.07922244 -0.01254191 0.044926 0.08428897 0.1506978 -0.1381824 0.06012167 -0.07381342 0.2325551 -0.02390606 -0.06818245 -0.0076816 -0.2770227 0.08478548 -0.1351759 -0.003487608 0.01406814 -0.1591508 0.1619311 0.1019606 -0.1551019 0.01195833 0.1846005 
  -0.0422262 0.01544487 0.1162536 -0.1962948 -0.1109021 -0.03174588 -0.04174207 0.1465514 -0.09738444 -0.1615733 -0.2781269 -0.1619933 0.1601171 -0.1776385 0.2213311 -0.04580747 0.1451284 -0.1041953 -0.1361953 0.1040487 0.07590271 0.2306618 -0.1311439 -0.007809554 -0.03918471 -0.1086381 0.1712758 0.002132182 0.04400559 0.09709321 0.04267672 -0.3301326 
  0.07972933 -0.01350137 -0.1034577 0.1485967 0.1169005 -0.1478042 -0.1889418 -0.1579005 -0.0643913 -0.03377694 -0.1978932 0.2566856 -0.100302 -0.05677201 -0.05605613 0.09687898 0.006674738 -0.04105222 0.05437038 0.1177645 -0.2381151 0.07319809 -0.07097998 -0.1727408 0.2166413 -0.04556536 0.05189319 -0.09653118 0.2247054 0.007724558 -0.1140378 0.0974865 
  -0.06633712 0.05569727 -0.2145876 0.2156731 0.1309734 0.03645176 -0.06966625 -0.03938448 -0.1819808 0.06105938 0.09364107 0.2409863 -0.01691455 0.07580649 0.1645505 0.07372164 -0.141663 -0.03356177 0.03424007 0.283723 -0.1812119 0.02960299 0.1472613 -0.2801735 0.0582729 -0.06313103 -0.2265688 -0.2732845 -0.00769406 0.231284 0.2002817 -0.03720184 
  -0.01508181 0.08047416 0.003555427 -0.01343986 -0.03704661 -0.017329 -0.01181405 0.05270271 0.1810587 -0.04294186 0.0623855 0.1858901 -0.0167655 0.1001057 0.1266116 -0.1250939 0.1441949 -0.1481496 0.05906089 0.03800482 -0.1058547 -0.1112525 -0.1003755 -0.1711868 0.01098108 -0.01477169 0.08068082 0.01965357 0.04752779 0.02639412 -0.03451608 -0.1375516 
  -0.2990702 -0.07763305 0.2136622 -0.04037962 -0.05352874 0.1200522 0.09680291 -0.1467823 0.03715903 0.08197376 0.2607648 -0.07241473 0.1046038 0.2071151 0.1711937 -0.007472803 -0.09118635 0.01457884 0.09420828 0.1395263 -0.108971 0.01789975 0.1709197 -0.03732159 -0.105352 -0.08329945 -0.01958301 0.007747522 0.03857534 0.02748341 0.1887747 0.02557654 
  0.01872965 -0.09551471 0.002182643 -0.04141761 0.06995181 0.1050825 -0.1741356 0.0463293 -0.02010198 0.2237283 0.1447646 0.01104685 -0.04425693 0.08614553 -0.1122376 -0.156119 0.04074345 0.02212145 0.1966508 -0.1206485 0.06838549 -0.04963931 0.07985586 0.1247024 0.1007737 0.07815557 0.01998537 -0.1263746 -0.02060422 0.0360107 -0.1028109 0.02344346 
  0.2092901 -0.1601045 -0.05635463 -0.05250523 0.07532143 0.1258083 0.1334157 0.03759376 0.2852347 -0.07979579 -0.1429857 0.1261628 0.2430509 -0.1358223 0.270514 0.12051 -0.2249298 -0.0674182 -0.1799164 0.06839119 0.06002174 0.01951301 -0.07491039 0.1605072 -0.03288821 0.1213498 0.02557633 0.03605784 0.1357396 -0.02211831 0.00851956 0.09867676 
  0.1672749 0.139423 -0.158804 0.1946881 0.0602729 -0.02585083 0.1977541 -0.005984342 -0.1056981 -0.05620912 0.2864189 0.05054571 0.1200819 0.00922724 -0.02449195 0.07381658 -0.1367571 -0.05081234 0.08911534 -0.1002131 -0.1965189 0.0291049 0.01432308 -0.08658758 0.02515096 -0.2127874 -0.009049757 0.03674252 -0.196409 -0.06231389 -0.09357128 0.104333 
  -0.1687429 0.1036018 -0.1212351 0.04633413 -0.05442644 0.07887091 -0.01327602 0.09037868 -0.1123618 -0.2162313 0.1047119 -0.02017784 -0.1305442 0.06071374 0.1515916 0.1676282 -0.03077127 -0.08037951 -0.03620746 0.2569574 -0.236492 0.1103628 -0.02069061 0.05515142 -0.2272459 -0.03828049 -0.1182936 -0.09761844 0.137156 -0.05995696 0.004629876 0.009546324 
  -0.08337559 0.1068794 0.05638306 0.09273007 0.1226972 0.03136269 -0.05945247 0.03779707 -0.09359841 -0.06324707 0.07516326 -0.06712915 -0.05985206 0.195088 0.01999335 0.03470054 0.04603731 0.008340253 -0.1198584 0.1925243 -0.3075132 0.1380531 -0.01903313 0.03407133 0.006013171 -0.01507292 0.05145702 -0.1468447 0.1298375 -0.03746956 0.09119209 0.01506832 
  -0.0350438 0.1721897 -0.257357 -0.2064512 -0.1623482 -0.142324 0.03884467 -0.02252558 -0.002021461 -0.03622352 -0.1005539 -0.003253916 -0.002031658 -0.03344088 0.001191398 0.002589309 -0.106111 0.08776957 -0.03768299 0.136055 -0.06773128 -0.1669524 -0.1397465 0.1982466 -0.1013741 0.1167617 -0.2301487 -0.08955007 -0.01447691 -0.01358013 0.07783094 0.1129028 
  -0.08915294 0.08221643 0.1146346 -0.0909266 -0.03956402 0.07328381 0.07161357 -0.1073879 0.06496803 -0.04285642 -0.0314324 0.001423429 0.08088821 0.08469168 -0.1168972 -0.01452295 -0.09505807 -0.2106197 0.09042095 0.184531 0.0004205328 0.1117032 0.1303599 -0.1507584 -0.1535578 -0.019039 0.08847766 -0.02834286 0.199495 0.009009387 -0.1125951 0.05829159 
  -0.01770748 0.01145045 0.1065976 -0.04296094 -0.1720373 -0.2221027 -0.1256931 0.004000681 -0.2772988 -0.04362702 0.0616846 -0.1483775 -0.09609234 -0.003891227 -0.06178764 -0.176547 0.1698439 -0.003714152 0.1390535 -0.0803005 -0.01264152 -0.07478821 -0.04554505 -0.1717484 -0.03101976 -0.2272971 0.0664658 0.1225282 -0.03138294 -0.06429172 -0.09314536 -0.2592009 
  0.2134088 -0.09946182 -0.2098815 0.1512346 -0.1474587 -0.06835508 0.07883968 0.04572013 0.1272418 -0.1100257 0.093613 -0.08195505 0.1076398 -0.09523832 -0.04364413 -0.05536333 -0.01868401 0.04935856 0.1421689 -0.1994703 -0.04835112 0.1374331 -0.005969702 0.1196324 -0.005777217 -0.06572358 0.06765318 0.2833073 0.06175718 -0.1550023 0.1400264 0.07182223 
  0.05579755 0.08271847 -0.005800526 -0.005785176 -0.04344532 -0.1304175 0.07252833 0.2613158 0.03699857 0.01363126 -0.0667621 -0.05558413 0.04614485 0.06085074 0.02974157 -0.1205957 0.06749871 0.003270529 0.2306872 0.01921835 0.2978262 -0.1571628 0.03898106 0.07890859 0.05813553 0.2193162 -0.04459301 -0.07410284 -0.1104372 -0.004345915 0.08034802 -0.01992583 
  0.1362805 0.03751053 -0.1274902 -0.1549879 0.188133 -0.1224822 -0.04512356 0.1406684 -0.1147061 -0.1280389 -0.1384671 -0.2174542 -0.1696303 0.002854536 -0.1086986 0.03619649 -0.2897337 -0.04828292 0.04545181 -0.2868142 0.02730733 -0.08835033 0.1903674 -0.04916601 0.05583556 -0.09047642 -0.02690509 -0.175005 -0.04142301 -0.02895728 -0.1633266 0.04047466 
  -0.0214006 0.05093782 -0.06774256 -0.07892144 0.02281848 -0.007057332 -0.149664 0.1073613 -0.224142 -0.2102309 -0.05529941 -0.1945009 -0.1448314 -0.1405364 0.1527149 -0.00336399 0.03654587 0.1796034 -0.08655734 0.01158967 0.04415764 0.0791843 -0.07369616 -0.1402582 0.1307339 -0.06523187 0.07280239 0.1906261 0.005019351 0.19724 0.05558743 -0.1428218 
  0.09674949 0.06728746 0.1791815 0.0133215 0.0008976834 -0.07980729 -0.07481842 0.02334628 -0.0009281537 -0.2517801 0.06476786 0.03064707 0.23077 -0.02258061 -0.1142573 -0.07610797 0.03686118 -0.09596013 -0.04183737 0.119065 0.04042716 -0.02074654 0.05797217 0.0593798 0.1521776 -0.00765215 0.07290912 0.09284824 0.1066666 -0.08121268 0.1119269 0.002869625 
  -0.09465376 0.03477328 -0.0902669 -0.182206 0.08234885 -0.1438461 0.04282245 -0.1577758 -0.002349484 -0.01965157 -0.02417943 0.195507 0.1338203 0.09404462 0.1476094 -0.1302791 -0.1638417 0.1887991 -0.004732171 -0.03299383 -0.1269654 -0.1110018 -0.09130875 -0.02783229 -0.10974 -0.07425631 0.08058058 -0.07301529 0.0653909 0.02197362 -0.1432829 -0.1655187 
  -0.1431239 0.08871404 -0.1824774 0.0211382 0.1183906 -0.07646509 -0.1670512 0.1972499 -0.1281153 -0.1231635 -0.02829951 -0.1707041 -0.1209214 0.05272493 0.1445742 0.1898183 -0.1757919 0.037173 0.08711916 0.2384552 -0.1656553 0.2197888 0.05435737 0.1544186 -0.1062209 0.0925505 -0.1118079 -0.02128552 -0.07948904 -0.005673354 0.0527348 0.07297216 
  -0.1247282 0.0881427 0.1064746 -0.02023697 0.1051822 -0.1845752 -0.196318 -0.04064205 -0.09072674 -0.07741145 -0.204028 0.01373008 -0.08108372 0.04565346 0.0004659645 0.1468639 0.06986526 -0.03102871 -0.04792022 -0.08067568 -0.1308316 0.08516956 -0.08921704 -0.05733309 0.04433179 0.008330647 0.03769936 -0.2206331 0.08737037 0.06114929 -0.1990138 -0.08893793 
  0.002966083 0.2755835 0.006066389 0.1073055 0.1147967 0.1201012 0.276731 0.1465985 -0.1435533 -0.2303679 0.1597438 0.3199572 -0.1269949 0.006638019 -0.00589801 -0.05011944 -0.261448 -0.05579086 0.03130896 0.06066395 -0.04879818 0.138865 0.1284049 -0.2666842 -0.07873207 -0.1088172 -0.1166665 -0.1696194 0.2313519 -0.04679624 0.1471734 -0.1387621 
  0.1383973 0.1676957 0.001054738 -0.1023496 -0.1642931 -0.07430209 0.1006551 0.09866876 0.04398714 -0.2892906 0.0384761 -0.1294003 -0.1463378 -0.16198 0.01643831 -0.2411411 -0.04328971 -0.08363125 -0.06879885 0.1656335 0.05921035 0.05662105 0.07304835 0.04866393 -0.0909825 -0.1404 0.151511 0.09129557 0.01089531 -0.09405569 0.06815106 -0.03748261 
  0.1223075 0.0135316 -0.04431729 0.2934778 0.2098596 -0.1225185 0.05976732 0.110318 -0.1690486 -0.03644057 -0.1726427 -0.2576808 0.1333319 0.1165837 -0.0552968 -0.0667436 -0.0005046811 0.07342541 0.09040541 -0.0580944 -0.03079388 0.09840588 0.04867107 -0.02413625 0.0517187 -0.01489362 -0.04034913 0.0688007 0.2848893 0.03286907 -0.02297751 0.005095526 
  0.09212054 0.1141366 0.01076266 -0.1607803 -0.03661242 -0.03370566 -0.1324655 -0.07594825 0.1035889 -0.03500662 0.04531078 -0.1486057 0.08728871 0.107255 -0.1159382 -0.1589649 -0.04908167 0.02356284 -0.1055571 -0.01258221 -0.1390407 -0.0791441 0.01470954 0.0301138 -0.06214696 -0.1101585 -0.300937 -0.06143114 0.2012209 0.07578143 -0.004512005 -0.09634555 
  -0.05129276 -0.01960352 -0.05016563 0.005605565 0.03608461 -0.0929756 0.07913722 0.154794 0.08990613 -0.1579913 -0.1302739 0.007462277 0.1377093 0.1755327 0.3042454 0.05417679 -0.07297798 -0.03309845 0.02078167 -0.1538377 0.07581974 -0.1129346 -0.008472459 -0.2562784 -0.1937629 -0.0035273 -0.06814113 0.1077776 0.002006694 -0.09545164 -0.04973807 -0.2525322 
  -0.06074699 -0.0415656 -0.02585238 0.1524577 0.1418274 -0.2338526 0.08590973 -0.07192073 -0.01059981 0.183093 -0.02758906 -0.02671516 0.2653309 0.1185871 -0.02767879 -0.03748642 -0.10621 -0.06842263 0.03131527 0.05035251 -0.1001879 -0.07694837 -0.0787143 0.0920822 -0.1648469 0.1943663 -0.06807389 -0.009408417 0.09545401 0.02938888 -0.2009735 -0.1551781 
  -0.08669807 0.05362513 0.03979047 -0.0904082 -0.02947458 -0.08164124 -0.1594042 0.02601961 -0.03482772 -0.2872253 -0.08193352 0.05173091 -0.04292953 -0.07069137 0.03337352 0.02719947 0.124056 0.08382945 -0.07369095 0.02034388 -0.0003056347 0.02837433 -0.1879122 0.1031534 0.002305652 0.1461945 0.3197913 -0.08136747 0.1801018 0.1364719 -0.1306445 -0.1352287 
  -0.05169669 0.08783218 0.1081938 -0.221789 -0.03422555 0.05817123 0.08876605 -0.2252158 0.08229715 -0.06458858 0.01738094 0.2005775 0.01471146 -0.01298576 0.01356057 -0.2317156 0.04306147 0.04380143 -0.1440279 0.05345242 0.06015641 -0.1653161 -0.05905587 -0.09139375 -0.07615255 -0.02771508 0.08355246 -0.1126709 0.06755561 0.2028859 0.02841964 -0.02308458 
  0.1015814 0.00855153 0.05434271 0.1151225 -0.1636472 -0.06056994 0.02826233 -0.06031358 0.08666181 -0.01386858 0.04354013 0.02266169 0.1556837 -0.1267545 0.2591568 -0.00951117 0.03544075 0.2606694 0.07376209 0.05034152 -0.06628623 -0.01894239 -0.2089761 0.1752933 -0.1366091 -0.1861673 -0.04931555 0.1256506 -0.03475133 0.1232617 0.008958978 0.1479793 
  0.009268282 -0.1258773 -0.1733657 -0.04167467 -0.06790428 0.09540205 -0.03696672 -0.1056449 0.3341708 0.07569105 -0.2185448 0.1163398 -0.03154149 0.05386894 -0.05094082 0.13939 -0.09195027 0.02395459 -0.09599671 0.2554512 0.1998462 0.1087225 -0.02809802 0.2505526 -0.1865659 0.2317979 -0.1805113 -0.148944 0.3750403 -0.05531463 0.01774682 -0.1035083 
  0.1543351 -0.02386704 -0.1375298 -0.0009927565 0.02015775 -0.03406456 0.0986815 0.06896199 0.04837521 -0.1299168 -0.01535181 0.02255351 0.1876526 -0.07432998 -0.05348747 -0.02422822 -0.05502809 0.1357435 -0.1307142 0.04796342 0.1800936 -0.06835006 -0.1418028 0.1017552 0.08166579 0.06652514 0.0360142 0.2447928 -0.01255079 0.0522913 0.1900719 -0.09069923 
  -0.1221618 0.09636702 -0.05022854 0.2756523 0.06477489 0.05721275 -0.14971 -0.01733131 -0.153464 0.08491871 0.07665575 -0.02565324 -0.07757574 0.06597231 -0.05966857 0.1793608 0.183223 -0.1025955 -0.02651312 0.0563218 -0.1275889 0.09276653 0.1348628 0.1911897 0.03679427 -0.06456032 -0.1835389 -0.1160832 0.03567153 -0.02357305 -0.3287844 0.1551134 
  -0.04021213 0.01271285 0.12508 0.03403155 -0.008262299 -0.1744484 0.1317075 0.1062943 -0.3555735 0.2045629 0.02516181 -0.1412215 0.02401126 0.2046625 -0.245906 0.02445566 0.1984933 -0.03625074 0.1696422 -0.02056329 0.003811425 -0.06204414 -0.06965423 -0.02931187 -0.1119259 -0.08593396 -0.090197 0.1801301 -0.003662481 -0.05810636 0.259642 0.05725984 
  0.05888889 -0.06221839 0.03300368 -0.09143777 0.1155934 0.1131039 -0.1641819 -0.07683367 0.05570108 -0.1052762 0.1879373 -0.1288695 0.2856179 -0.08012476 -0.1593497 0.3715333 0.05174438 0.06502262 0.1016565 -0.1287732 -0.1713575 -0.1731699 -0.04901904 -0.05060996 0.01849705 -0.09590915 -0.01177331 0.00656322 0.1404864 -0.1000372 0.007156341 0.07519912 
  0.1082005 -0.122399 -0.2686262 -0.1032641 0.03393677 -0.01863646 -0.07668767 -0.1407394 -0.1120124 -0.005519054 0.0588914 0.08051343 -0.1001317 -0.01488653 0.0321858 -0.09642666 -0.02980916 -0.224479 -0.152567 0.04346384 0.05850173 -0.03395731 -0.003434387 0.1208929 0.1649839 -0.08983116 -0.1539118 0.05566864 -0.06713251 0.05988859 -0.0127525 0.02453505 
  -0.05885226 -0.08805823 0.1111578 -0.1262806 -0.01124421 0.1341947 -0.007480944 -0.1333975 0.08743768 0.005021751 0.02569645 -0.03408707 0.1267859 -0.06325233 0.04227884 0.1932203 0.04142557 0.06195857 0.04134366 0.1499315 0.2687009 0.1367311 0.0423558 0.1723479 0.08272333 -0.2114887 -0.06476768 -0.2012279 -0.07086681 -0.1175792 0.195039 -0.1708876 
  -0.132614 0.08226068 -0.2574568 0.0133549 -0.04462564 0.08459627 -0.1376256 0.2034281 -0.04087509 -0.1909688 0.1123576 -0.2829263 -0.2542389 0.05394623 -0.09523259 0.1896358 -0.05777614 0.01096267 -0.08420702 0.1357059 -0.1923286 0.2562914 0.06513104 0.3701228 -0.1625902 0.05251274 -0.01321178 -0.06401762 0.03853765 -0.05131738 -0.07021272 0.07637301 
  0.1125887 0.1492274 0.1002978 -0.2288247 0.00723737 -0.01127916 -0.001664494 0.05365 0.1271318 -0.1312845 -0.08373283 0.1074686 0.02703352 0.0378822 0.02211652 -0.05224386 0.1617785 -0.01814678 0.05370029 0.03095363 0.08290551 -0.0777033 -0.1905766 -0.1988734 0.04105102 -0.05569977 0.1833174 0.03439766 0.07646487 -0.02378489 -0.07312079 -0.1849961 
  -0.08665553 0.008095226 -0.2530099 -0.021598 0.07305851 0.1694826 0.1101138 -0.09463692 -0.1482958 0.08286373 0.09654459 0.1958205 -0.05154733 0.04048488 0.02304736 0.1144961 -0.05386914 0.05895048 -0.01276282 -0.01172923 0.1057407 -0.1444972 -0.09861419 -0.1279252 0.08580784 0.1084719 -0.02437914 -0.1553191 0.06320436 0.06912524 -0.120883 -0.04987863 
  0.2270302 -0.04264925 -0.03272417 -0.1848169 0.02561742 0.07246889 0.1738226 0.04077834 -0.002168196 0.03986812 0.1282295 -0.09514081 0.04638563 -0.03091121 -0.09253502 0.07086162 -0.08906745 -0.1113232 0.02424779 -0.1048491 -0.1304194 0.1231801 -0.2838311 0.2774092 -0.1365935 -0.07264845 0.1899927 -0.03691177 0.02647246 0.1512561 -0.1522028 -0.03713119 
  0.1035535 -0.06217968 0.0199486 0.2422222 0.1210585 0.2061547 -0.007740073 0.1625234 0.01105646 0.01441089 0.1154552 -0.1083857 -0.02408608 0.05617454 0.04029371 0.2228701 0.0197376 0.2555037 0.1079174 -0.1236282 -0.08525082 -0.03323388 -0.09418467 -0.08008981 0.01628932 -0.006658825 -0.03206588 -0.04213206 -0.03472665 0.1131921 0.04336076 0.1262588 
  0.140968 -0.08893813 -0.0933553 -0.03164734 -0.1330502 0.1366837 -0.01519227 0.07144915 0.2210913 0.06462831 -0.06396458 -0.02023742 0.06243688 -0.06958566 -0.04104661 -0.1343544 0.01172494 0.0645026 0.03744677 -0.0558207 0.004505496 -0.1275923 0.006967615 0.006688194 -0.06477503 0.05808927 -0.001136644 0.01911445 -0.08697401 -0.06315229 -0.07152469 0.08856374 
  0.05953959 0.2182653 -0.01886581 -0.1238573 -0.1165532 0.05370148 0.123002 0.03382649 0.06064168 0.006097256 0.108177 0.309769 -0.1052389 -0.003316202 -0.09919749 0.04706946 -0.02234637 0.07955024 0.1090612 0.2595273 0.06543539 -0.02739215 -0.09716658 0.05986046 0.0996349 -0.01063463 -0.04838964 0.05451041 0.05155085 -0.0948597 0.1770988 0.03697397 
  0.006152538 0.1239941 -0.08542322 -0.07800415 -0.04575999 -0.08780637 0.3669062 0.03574915 0.1591652 0.02187642 0.1037666 -0.07727169 -0.1897872 0.04351648 0.008272842 -0.1635003 -0.1327649 -0.12126 -0.01149082 -0.2852163 -0.00416991 -0.04589923 -0.04914224 0.07678185 -0.2340979 0.05298802 -0.04201377 -0.09472232 0.03200306 0.1037427 -0.1081921 -0.1353928 
  0.1364408 0.1409897 0.06798951 0.1029964 0.09396663 -0.08484063 0.1179327 0.1628418 -0.03376699 0.009967078 0.1109403 0.03095961 0.1708953 -0.008073288 0.06095713 -0.1657729 -0.04719675 -0.2172417 0.04887847 0.1293524 0.007440974 0.08210991 -0.1453827 0.1732682 0.07516541 -0.01336508 0.002787171 -0.07059944 -0.010068 0.2657872 -0.1270984 -0.2276898 
  -0.1764354 -0.1339426 -0.1115488 0.03225759 0.1132854 0.02627433 -0.1790291 -0.0326077 -0.02143468 -0.1524445 -0.1738102 0.002636177 0.2717206 -0.02754553 -0.01691254 0.1517199 -0.05866475 0.007879666 -0.154461 0.103468 0.007384537 -0.04041845 0.1982268 0.06313299 0.00267998 0.08425199 0.002628712 -0.113872 0.05514075 -0.03897683 -0.01387762 -0.004424277 
  0.02928189 0.005647385 -0.1435011 0.03566039 0.03230534 -0.07045355 0.1347891 0.01070611 -0.04999032 -0.000876925 -0.09666476 0.08236152 0.2132663 0.09716224 0.07130699 0.02399908 -0.06981878 -0.2092449 -0.1607123 0.1127235 -0.125407 -0.05532524 -0.03711764 0.08101764 -0.07572186 0.07323983 0.09036925 0.02703568 -0.2496829 -0.2258395 -0.03108087 0.2493949 
  0.0004960332 -0.07441411 -0.03796199 0.009045476 0.01354523 0.05661333 -0.1533131 -0.1323106 0.1258171 -0.1150774 0.06011432 -0.04253881 0.1180424 0.07166371 0.08256596 -0.1669021 -0.01706794 0.1410761 -0.09266595 -0.1317961 -0.04590817 0.1165734 -0.1301896 0.05166482 -0.1234473 0.07739591 0.2195299 -0.08615597 -0.02310906 -0.03085222 -0.1811713 -0.1164595 
  0.1224881 -0.2210935 -0.01391612 -0.03051477 0.02570619 -0.04989238 -0.1510277 0.03429209 0.06458807 0.1501143 -0.1425413 0.1201325 0.02078397 0.05234403 0.087488 -0.07585762 0.1552085 -0.1764562 0.1945719 0.1379425 -0.06601845 0.09267452 -0.1227341 0.00885288 0.1231815 -0.1196067 0.09750272 0.05260269 0.1139051 -0.01252779 -0.09800832 -0.02727303 
  0.02284119 0.03318778 -0.1442915 0.04887786 0.01677295 -0.1206145 -0.03218569 -0.08797635 0.07180141 -0.008170012 -0.08902887 0.06166181 -0.002714543 -0.03059333 -0.02130652 0.1696889 0.1973546 -0.0283078 -0.01513914 0.009245495 -0.1242917 -0.1642408 -0.01606598 -0.2039327 0.1741336 -0.001387435 -0.01591469 -0.07230437 0.0142077 -0.1194519 0.1594702 0.07830054 
  -0.337962 -0.1036253 0.2582392 0.1828847 -0.09060208 0.09669776 -0.1023395 0.03387127 -0.2214912 -0.1250326 -0.02382535 0.05267821 0.1907775 -0.01020109 -0.04013933 0.01662949 0.06504178 0.1813753 -0.1175427 -0.0295602 0.1572179 -0.2111413 0.3201084 0.2675794 0.2492566 -0.09805223 -0.1563012 0.01667481 -0.01438601 -0.09313206 -0.006668816 0.09598842 
  0.04627663 0.1306706 -0.2104442 0.03257198 0.03225543 -0.09074306 0.05874095 -0.04635101 -0.0712478 0.099861 0.08027464 0.1820841 -0.1251707 -0.02320892 -0.1408459 0.01529301 -0.001735628 -0.06402346 0.1457622 0.01971827 0.2545725 0.07310904 0.07056762 0.005582897 0.1911818 0.0007966212 0.002480041 -0.06889474 -0.08422207 -0.116252 -0.1499975 -0.1773927 
  0.05456338 -0.0301844 0.04527489 0.2786506 -0.02506057 -0.141718 -0.01282864 -0.1174428 0.05841202 -0.2634305 -0.1869436 -0.1109957 -0.1594678 -0.1436205 0.09633984 -0.2613763 0.02839379 0.01871377 0.05865432 -0.05543089 0.009213946 0.1971313 0.08033136 -0.08717965 -0.0688844 -0.1267233 -0.03085575 -0.09646977 0.1919913 0.0586638 0.0929433 0.01394996 
  0.2213588 -0.105268 0.03033397 0.11923 -0.0723587 0.08716626 0.1079187 -0.0519223 -0.01605016 0.1982611 -0.08768903 0.06578055 -0.1421721 -0.1158857 -0.09679843 -0.04941943 0.1909259 0.06500447 0.04679593 -0.1721534 0.1985851 -0.1432824 -0.06660531 -0.1622861 0.2621979 -0.04826926 -0.0003961996 -0.01362761 0.03525334 0.01938347 -0.04237109 0.03880395 
