<Nnet> 
<Splice> 120 120 
[ 0 ]
<AddShift> 120 120 
<LearnRateCoef> 0  [ -0.6885963 -0.8071582 -0.7998403 -0.7487258 -0.7297528 -0.6901016 -0.6498834 -0.6128546 -0.5764052 -0.544152 -0.5095557 -0.4720196 -0.4457778 -0.4499367 -0.4659732 -0.4607454 -0.431703 -0.4233273 -0.410111 -0.37695 -0.3522814 -0.3425293 -0.3351017 -0.3262124 -0.6812628 -0.7959626 -0.7867713 -0.7355464 -0.7159081 -0.6769562 -0.6383156 -0.6032221 -0.568292 -0.5370008 -0.5031036 -0.4661061 -0.4404779 -0.4444121 -0.4597182 -0.454283 -0.4254533 -0.4166263 -0.4038934 -0.3720965 -0.3488174 -0.3395213 -0.3320639 -0.3224849 -0.6738919 -0.7847425 -0.773701 -0.7223796 -0.7020915 -0.6638327 -0.626732 -0.5935514 -0.5601545 -0.5298586 -0.4966701 -0.4601806 -0.4351754 -0.4389041 -0.4534849 -0.447845 -0.4192366 -0.4099472 -0.397698 -0.3672664 -0.345367 -0.336539 -0.3290539 -0.3187937 -0.6665211 -0.7735223 -0.7606306 -0.7092127 -0.6882749 -0.6507093 -0.6151484 -0.5838807 -0.552017 -0.5227165 -0.4902367 -0.4542551 -0.4298728 -0.4333962 -0.4472516 -0.441407 -0.4130199 -0.4032681 -0.3915026 -0.3624364 -0.3419166 -0.3335567 -0.3260439 -0.3151025 -0.6538529 -0.7571478 -0.7419785 -0.690244 -0.6685812 -0.6316007 -0.5976517 -0.5683774 -0.5380768 -0.5097372 -0.4779102 -0.4424147 -0.4186684 -0.4221464 -0.4353119 -0.4292637 -0.4010949 -0.390979 -0.380028 -0.3525665 -0.3335412 -0.3259012 -0.3185524 -0.3073035 ]
<Rescale> 120 120 
<LearnRateCoef> 0  [ 0.3042692 0.2676814 0.2517571 0.2483404 0.2438938 0.2460724 0.2534863 0.2636916 0.272074 0.2793846 0.286371 0.2944871 0.3020858 0.3050231 0.3029485 0.3017991 0.3045186 0.3020213 0.3054688 0.3128748 0.320302 0.3243549 0.3281518 0.3356188 0.3070432 0.269253 0.2529163 0.2494137 0.2448463 0.2470669 0.2546598 0.2650873 0.2736375 0.2810996 0.2882305 0.2965239 0.3042657 0.3071785 0.3049389 0.3036897 0.3064615 0.3038806 0.3074324 0.3150876 0.3227254 0.3268362 0.3306397 0.3380216 0.3099065 0.2708624 0.2541015 0.2505107 0.2458214 0.2480837 0.2558565 0.2665107 0.2752348 0.2828543 0.2901351 0.2986097 0.3064996 0.3093887 0.3069769 0.3056248 0.3084508 0.3057823 0.309442 0.317355 0.3252096 0.3293773 0.3331878 0.3404805 0.312853 0.2725035 0.2553063 0.2516251 0.2468111 0.2491159 0.2570724 0.2679589 0.2768618 0.2846435 0.2920789 0.3007412 0.3087842 0.3116483 0.3090574 0.3075986 0.3104805 0.3077215 0.3114926 0.3196728 0.3277526 0.331979 0.3357961 0.3429943 0.3130869 0.2722855 0.2549741 0.2513022 0.2464768 0.2488251 0.2568835 0.267877 0.2768748 0.284733 0.2922279 0.3009639 0.3090746 0.311929 0.3092414 0.3077315 0.3106405 0.3078578 0.3117204 0.3200765 0.3283085 0.3325878 0.3363962 0.3435121 ]
</Nnet> 
